#ifndef FC2_BIAS_H
#define FC2_BIAS_H

const float fc2_bias[768] = {-0.08873165, -0.023767736, 0.013045607, 0.020023705, -0.0064197467, -0.06371827, 0.03222774, -0.0027300257, -0.10729166, 0.008930998, 0.05045804, -0.0051023336, -0.18085472, 0.093782015, -0.0566737, 0.023984635, 0.0128059555, 0.018060518, 0.011789463, -0.046110228, -0.1005838, -0.19703618, 0.08060379, 0.0728891, 0.010501479, -0.16366863, -0.029203344, 0.04162035, -0.036261354, 0.020989925, 0.040937524, -0.045414753, 0.0207267, -0.09026066, 0.04332657, 0.117503315, -0.012575521, -0.0011158308, 0.05850151, -0.029957902, -0.086931065, 0.039679404, 0.01725234, 0.020079779, -0.036276948, 0.030605543, 0.016905818, 0.115896225, -0.08445002, -0.019446079, 0.06707636, -0.014459844, -0.091401525, -0.0196364, -0.046767086, 0.046978734, -0.18404713, -0.02028764, 0.078709915, 0.040718675, -0.021756854, -0.14504863, -0.013687472, 0.0075785927, 0.08567233, -0.163452, -0.030771395, -0.017798306, -0.12596768, 0.12932011, 0.06716953, 0.014690285, -0.16504695, 0.08747769, -0.014206386, -0.0036067062, 0.028995952, 0.050574556, -0.058064684, -0.065245785, -0.030558258, 0.09932371, 0.082836404, -0.0032685196, -0.13207, 0.027808683, 0.09384258, 0.02897849, -0.066228695, 0.1356138, 0.048199918, 0.017386168, 0.07410479, 0.06646125, -0.013255163, -0.017919647, -0.039747883, 0.009916081, -0.06675729, -0.060819298, -0.018890547, -0.008268267, -0.041742757, -0.0328381, -0.027441097, -0.12849195, -0.0004604889, -0.0034446619, 0.033935923, -0.041238405, 0.07031209, -0.022383422, 0.071039125, -0.029371068, -0.105801485, 0.012586301, 0.116004445, 0.046693318, 0.06347684, -0.07079958, 0.0029948126, -0.19304462, -0.023930317, -0.00051535835, 0.044958096, -0.019926118, -0.05321519, -0.06985358, 0.000204722, 0.050574288, 0.017547337, -0.015480569, 0.1169557, 0.027588876, 0.058355544, -0.0072771977, 0.028091531, -0.008947106, -0.014257922, -0.02456674, 0.0431063, -0.043896344, 0.038023718, -0.12171618, -0.05712536, -0.27781978, -0.0016251598, 0.07493181, -0.012123839, 4.856243e-06, 0.064132646, 0.09449785, -0.032770295, 0.039488133, -0.03648041, -0.006612232, -0.072446644, 0.04596309, -0.013369295, 0.0010697427, -0.03814363, -0.02073702, 0.032277625, -0.027221605, 0.038043182, -0.04051659, 0.033980068, -0.035561204, 0.029017182, -0.03378577, 0.06603968, 0.10639534, 0.099615365, 0.11292723, 0.045021687, 0.13861758, 0.008384287, 0.109318234, -0.023414383, 0.11390529, 0.048479825, -0.0473449, 0.017741296, 0.08065435, -0.027302338, -0.01423851, 0.018832257, -0.067165576, -0.014697517, -0.021988833, 0.032445755, -0.05616133, -0.05303393, -0.011401888, 0.077455185, 0.020667253, 0.05474401, -0.015962122, 0.009838052, -0.07389462, -0.024729667, -0.14737882, 0.02969852, 0.0006188432, -0.07210919, 0.022125961, 0.045339238, -0.05319326, -0.014961171, -0.029076153, -0.039472964, -0.04126022, 0.087607875, 0.018197965, 0.07373394, 0.09560771, 0.056727357, 0.08157671, 0.01793452, 0.022724612, 0.043509368, -0.013723779, 0.059720244, 0.0009698241, -0.036759213, 0.002077843, -0.087001786, -0.043244395, 0.053557813, -0.057032384, 0.059812374, -0.04353556, -0.06339909, 0.043055296, -0.03350409, 0.033820074, -0.014579099, -0.059366576, 0.027839292, 0.10342858, 0.07619275, 0.0011489828, -0.021454504, 0.03356835, -0.07404144, 0.0033066547, 0.0015027592, 0.020908937, -0.08075507, 0.061895747, -0.04514916, 0.036682896, 0.042942148, -0.13167746, 0.020698708, -0.12210536, 0.04433054, -0.2078339, 0.044221096, -0.12715556, 0.0051598772, 0.118271895, 0.09355938, 0.074385375, -0.012560458, 0.09969346, 0.054620706, -0.07061601, 0.07433571, -0.09282431, -0.0287665, 0.04215708, -0.032758147, -0.0089600505, 0.021836245, -0.080461726, 0.07428472, -0.109146066, 0.104817174, 0.006211373, -0.0048874244, -0.09222718, 0.043434244, 0.12476206, -0.04089362, -0.0008877984, -0.09218226, 0.0131388195, 0.01833517, -0.100779384, 0.039003983, -0.060113855, 0.08459475, -0.035985086, -0.11908327, -0.012822595, -0.041065346, -0.050432894, -0.11252626, 0.06427872, 0.07236498, 0.0075424416, 0.05760001, 0.089172915, 0.06876754, -0.013744639, 0.11752219, -0.038210243, 0.09886844, 0.04336938, -0.029709619, -0.09288054, 0.014209747, -0.050556604, 0.0040970296, 0.13836858, 0.041223016, -0.03798056, -0.038545284, 0.038443957, 0.024045477, -0.029584737, 0.032068472, 0.049038596, 0.05487738, -0.04414634, 0.022047546, -0.021117743, -0.13948812, 0.12727872, -0.045874003, -0.17926303, -0.034098934, -0.024923345, 0.078415826, 0.007345282, 0.16689008, 0.0008976073, -0.17184226, -0.07437255, -0.007802778, -0.038232345, 0.0058601084, -0.008799546, -0.032367993, -0.063619, 0.023607282, -0.117414325, -0.02034567, -0.014655498, 0.35091752, -0.0019213313, 0.054042995, 0.042324916, -0.09298362, -0.034718197, -0.053924218, -0.116159014, 0.044114895, 0.040526513, -0.007815622, -0.07983179, -0.06954166, -0.061408456, -0.025392303, -0.0009712731, -0.012044516, 0.0818185, -0.0062380526, -0.06303834, -0.01299079, -0.06442643, -0.056997687, 0.0521208, -0.04533511, -0.018592935, -0.019862989, -0.062612526, -0.09808942, 0.03082131, 0.014539314, 0.043526463, 0.03418502, 0.1135932, -0.00079689844, 0.024987973, 0.027399825, -0.014790611, 0.0292906, 0.14928427, -0.1109888, -0.23293684, -0.008086079, 0.08987549, 0.023553275, -0.19739689, -0.0071829627, -0.02490614, 0.06920671, 0.0981851, 0.033501517, -0.106040336, 0.0705261, -0.028003868, 0.052669115, -0.11150868, -0.03618868, -0.09411049, 0.1360132, 0.118700944, 0.036680404, 0.10351663, 0.034664128, 0.01250828, 0.099585615, 0.023842473, 0.0461432, 0.08220717, 0.0019274305, 0.004847892, -0.027978992, -0.20719385, -0.08892877, 0.035144795, 0.047778398, 0.029181303, 0.022655195, 0.0354827, -0.050739042, -0.10629244, -0.0041221427, -0.02768734, -0.05984903, -0.0017492679, -0.0753305, 0.057667322, 0.025802111, 0.021645758, -0.04771421, 0.06953563, 0.0037540095, -0.13546753, -0.0068676826, 0.021233069, 0.047294516, 0.032004602, -0.010963272, 0.12485864, 0.06556412, -0.024880271, 0.20928496, -0.024388963, 0.004424702, 0.1413446, -0.09877033, -0.08466661, 0.03326929, 0.027708525, 0.04252572, 0.0058937506, -0.1711652, 0.016767899, -0.10510277, -0.0027553798, 0.15403682, 0.021605892, 0.067215756, -0.12818572, -0.017615402, 0.049459085, -0.043400202, 0.073406234, 0.08403664, 0.028968932, 0.020668998, 0.0041147717, 0.15556717, 0.071375355, 0.4217621, -0.051088016, -0.0076794187, 0.026115876, -0.05855063, -0.03832775, -0.051237825, -0.04193953, 0.07741035, 0.010436297, -0.04292546, 0.09464603, -0.0067455396, 0.0037395398, -0.012408326, 0.04003651, -0.043663736, -0.14273986, -0.006434567, -0.030157575, 0.061333947, -0.006089805, -0.13766831, 0.08733547, -0.1077116, -0.029321583, 0.16215271, -0.07067159, 0.024670137, -0.0028698223, -0.03131794, 0.16282162, 0.07744012, 0.09883185, 0.037081286, 0.10666785, 0.06432101, 0.0061567063, -0.050362453, -0.02306596, -0.0020085322, -0.11618597, -0.018343963, -0.034137495, -0.08640956, 0.07994004, 0.0929732, -0.09241002, 0.033807978, -0.09144222, 0.12163826, 0.014359116, 0.02089272, -0.07831101, 0.026267394, -0.056534402, -0.012664055, -0.3652749, 0.0715753, -0.03636055, -0.06321305, 0.042378426, 0.023395963, -0.03695223, -0.03938743, -0.03830835, 0.20773952, -0.14058673, 0.029614953, 0.11187817, -0.017513357, -0.047289908, 0.036364336, -0.06248415, 0.06875194, -0.1608581, -0.1274781, 0.028495966, -0.035695117, 0.043971922, -0.03196887, -0.05900947, -0.0016831419, 0.030553468, -0.08258661, -0.020583916, -0.015544451, 0.0038670169, -0.12816176, 0.02914108, 0.016273357, -0.048529554, 0.012554783, -0.0575956, -0.025382463, -0.061183173, 0.00477437, 0.021965496, -0.0658096, -0.04909033, 0.048507184, 0.049882967, -0.022349153, -0.042043015, 0.011021401, 0.0073629073, 0.042077564, -0.013963394, 0.004107582, 0.03528141, 0.41065824, -0.037571874, 0.106272995, -0.17749675, 0.028995473, 0.11718087, -0.05716931, 0.013353554, -0.07639309, -0.028311327, 0.092933156, 0.08889053, -0.06390952, -0.05798318, 0.032600455, -0.02828522, -0.103474304, 0.0045611137, -0.03228731, 0.08369327, -0.045820955, 0.04529256, 0.11599727, 0.07094759, -0.25123474, 0.022489682, -0.08549578, 0.09543714, 0.021532662, 0.036516428, -0.057227675, -0.065888844, -0.01993796, -0.039339483, -0.056911718, 0.056571636, 0.091289915, 0.03483987, 0.058339275, 0.027941966, -0.10191855, -0.020963203, 0.03079049, -0.29754484, -0.040090848, -0.045390844, 0.008872624, -0.036674608, -0.033522826, 0.051797524, -0.067168355, -0.07784714, 0.1821408, 0.033880893, 0.0029219913, -0.007912273, -0.04564117, -0.06359117, 0.0057740947, 0.04671921, 0.1198948, 0.021930883, -0.06971961, -0.036021646, 0.044156365, -0.053540546, 0.014888097, -0.10547697, -0.13747588, 0.012266993, -0.007041894, 0.04405314, -0.027796919, 0.19897544, -0.015473004, 0.003293268, -0.028831096, 0.009181266, -0.051751055, -0.05023396, 0.14078355, -0.1338592, 0.07347918, 0.0053854845, 0.0480722, -0.018333647, 0.025928264, -0.01640735, 0.037915286, 0.057215963, 0.08781105, 0.020454772, -0.067955844, 0.09691358, 0.028793788, 0.0017407939, -0.044121716, -0.033007532, -0.17496522, 0.007883987, -0.085646845, 0.02724029, -0.0665395, -0.16560999, 0.038425304, 0.06398076, 0.014010674, -0.008929388, -0.013014916, -0.10176651, -0.04665152, 0.037449233, 0.014573473, 0.1065026, -0.0473664, 0.051132403, -0.06423936, -0.028321903, 0.035241522, 0.04082425, -0.010912929, -0.017852923, -0.11911022, -0.2505676, -0.04999887, -0.027004648, 0.028809717, -0.021758787, 0.01912263, -0.16925994, -0.050266623, 0.03799949, -0.035524596, -0.034835488, 0.071786314, 0.048916522, -0.02935946, 0.034760058, 0.006978563, 0.015463472, -0.031504996, -0.09726052, -0.0696332, -0.084328346, 0.0054300874, -0.013644837, -0.0009495033, 0.05227643, 0.024634028, -0.08254233, 0.054579612, -0.06807453, 0.0031048614, 0.033963755, 0.04962344, 0.024476776, 0.037796877, 0.07843008, -0.038322013, 0.04000349, -0.023932215, 0.06705735, 0.098399095, -0.034577608, 0.120732285, -0.015649434, 0.04225779, 0.031804655, -0.040746875, -0.06244593, -0.018059047, 0.014411241, -0.02881548, 0.06075432, -0.046292774, 0.031225221, -0.06652413, 0.028106557, -0.18819119, -0.1059826};

#endif // FC2_BIAS_H
