#ifndef FC2_BIAS_INTEGER_H
#define FC2_BIAS_INTEGER_H

const float fc2_bias_integer[768] = {-254.0, -83.0, 45.0, 64.0, -18.0, -256.0, 84.0, -11.0, -363.0, 40.0, 160.0, -16.0, -565.0, 294.0, -200.0, 58.0, 42.0, 51.0, 39.0, -102.0, -402.0, -651.0, 312.0, 273.0, 41.0, -630.0, -97.0, 136.0, -105.0, 75.0, 141.0, -151.0, 82.0, -286.0, 147.0, 188.0, -52.0, -2.0, 161.0, -117.0, -255.0, 128.0, 72.0, 65.0, -133.0, 100.0, 54.0, 314.0, -281.0, -66.0, 277.0, -37.0, -259.0, -59.0, -160.0, 151.0, -342.0, -60.0, 210.0, 117.0, -58.0, -331.0, -32.0, 26.0, 204.0, -527.0, -85.0, -60.0, -338.0, 556.0, 208.0, 53.0, -475.0, 465.0, -51.0, -10.0, 82.0, 55.0, -234.0, -210.0, -124.0, 342.0, 124.0, -11.0, -369.0, 74.0, 371.0, 81.0, -196.0, 360.0, 154.0, 52.0, 281.0, 242.0, -44.0, -62.0, -152.0, 17.0, -101.0, -206.0, -58.0, -31.0, -144.0, -105.0, -123.0, -392.0, -2.0, -12.0, 79.0, -124.0, 63.0, -73.0, 258.0, -83.0, -351.0, 42.0, 392.0, 186.0, 215.0, -225.0, 12.0, -659.0, -79.0, -2.0, 140.0, -60.0, -186.0, -252.0, 1.0, 80.0, 29.0, -43.0, 467.0, 75.0, 178.0, -24.0, 102.0, -28.0, -47.0, -69.0, 163.0, -155.0, 129.0, -453.0, -169.0, -455.0, -4.0, 237.0, -41.0, 0.0, 205.0, 388.0, -77.0, 133.0, -163.0, -26.0, -207.0, 152.0, -55.0, 3.0, -97.0, -68.0, 113.0, -112.0, 121.0, -152.0, 176.0, -110.0, 113.0, -105.0, 263.0, 321.0, 349.0, 360.0, 158.0, 352.0, 23.0, 270.0, -74.0, 336.0, 178.0, -161.0, 51.0, 312.0, -100.0, -45.0, 67.0, -204.0, -61.0, -53.0, 109.0, -165.0, -176.0, -32.0, 298.0, 69.0, 170.0, -41.0, 30.0, -198.0, -81.0, -246.0, 79.0, 1.0, -229.0, 100.0, 140.0, -88.0, -56.0, -95.0, -126.0, -104.0, 273.0, 55.0, 232.0, 249.0, 193.0, 131.0, 47.0, 37.0, 143.0, -29.0, 200.0, 3.0, -106.0, 6.0, -271.0, -141.0, 214.0, -178.0, 231.0, -179.0, -233.0, 131.0, -96.0, 98.0, -35.0, -146.0, 86.0, 309.0, 144.0, 4.0, -103.0, 110.0, -189.0, 11.0, 6.0, 68.0, -209.0, 153.0, -133.0, 124.0, 140.0, -433.0, 62.0, -396.0, 145.0, -455.0, 178.0, -370.0, 16.0, 638.0, 259.0, 249.0, -42.0, 280.0, 131.0, -214.0, 244.0, -166.0, -85.0, 162.0, -100.0, -29.0, 62.0, -203.0, 238.0, -437.0, 257.0, 28.0, -18.0, -295.0, 142.0, 537.0, -167.0, -3.0, -250.0, 39.0, 58.0, -303.0, 114.0, -231.0, 257.0, -140.0, -476.0, -39.0, -144.0, -141.0, -289.0, 245.0, 268.0, 27.0, 151.0, 285.0, 243.0, -33.0, 332.0, -118.0, 348.0, 138.0, -86.0, -408.0, 47.0, -160.0, 16.0, 556.0, 106.0, -125.0, -112.0, 151.0, 96.0, -49.0, 100.0, 112.0, 162.0, -166.0, 60.0, -61.0, -491.0, 237.0, -101.0, -535.0, -98.0, -75.0, 200.0, 24.0, 356.0, 4.0, -543.0, -268.0, -32.0, -159.0, 21.0, -23.0, -89.0, -271.0, 94.0, -339.0, -84.0, -37.0, 767.0, -8.0, 160.0, 133.0, -273.0, -109.0, -124.0, -384.0, 164.0, 124.0, -25.0, -171.0, -149.0, -238.0, -92.0, -3.0, -34.0, 316.0, -10.0, -209.0, -49.0, -227.0, -171.0, 172.0, -142.0, -66.0, -69.0, -333.0, -317.0, 114.0, 56.0, 184.0, 111.0, 330.0, -1.0, 81.0, 88.0, -48.0, 96.0, 230.0, -317.0, -704.0, -29.0, 301.0, 41.0, -651.0, -30.0, -45.0, 203.0, 382.0, 106.0, -411.0, 293.0, -107.0, 189.0, -334.0, -119.0, -346.0, 481.0, 302.0, 129.0, 435.0, 104.0, 50.0, 358.0, 79.0, 136.0, 236.0, 6.0, 17.0, -93.0, -340.0, -374.0, 105.0, 153.0, 101.0, 70.0, 128.0, -170.0, -286.0, -17.0, -93.0, -171.0, -7.0, -250.0, 184.0, 74.0, 85.0, -178.0, 190.0, 11.0, -311.0, -28.0, 58.0, 167.0, 90.0, -48.0, 386.0, 268.0, -81.0, 525.0, -75.0, 15.0, 114.0, -300.0, -289.0, 136.0, 98.0, 141.0, 17.0, -497.0, 68.0, -408.0, -11.0, 308.0, 72.0, 111.0, -241.0, -55.0, 241.0, -135.0, 237.0, 301.0, 112.0, 94.0, 14.0, 341.0, 239.0, 393.0, -206.0, -26.0, 92.0, -193.0, -142.0, -192.0, -168.0, 255.0, 29.0, -151.0, 260.0, -25.0, 12.0, -44.0, 137.0, -72.0, -464.0, -8.0, -92.0, 162.0, -23.0, -224.0, 311.0, -282.0, -91.0, 487.0, -234.0, 69.0, -9.0, -120.0, 444.0, 247.0, 277.0, 129.0, 384.0, 145.0, 27.0, -202.0, -68.0, -6.0, -249.0, -81.0, -128.0, -265.0, 235.0, 371.0, -256.0, 96.0, -358.0, 334.0, 40.0, 82.0, -267.0, 95.0, -240.0, -52.0, -640.0, 304.0, -133.0, -146.0, 120.0, 68.0, -146.0, -137.0, -126.0, 532.0, -571.0, 87.0, 416.0, -68.0, -176.0, 115.0, -99.0, 269.0, -641.0, -440.0, 101.0, -154.0, 145.0, -122.0, -176.0, -4.0, 97.0, -308.0, -63.0, -47.0, 15.0, -394.0, 92.0, 52.0, -190.0, 19.0, -201.0, -89.0, -191.0, 15.0, 69.0, -203.0, -198.0, 159.0, 164.0, -60.0, -111.0, 29.0, 21.0, 170.0, -52.0, 12.0, 58.0, 333.0, -87.0, 321.0, -627.0, 98.0, 291.0, -180.0, 47.0, -281.0, -102.0, 319.0, 297.0, -229.0, -241.0, 71.0, -141.0, -297.0, 20.0, -78.0, 303.0, -189.0, 131.0, 453.0, 232.0, -597.0, 83.0, -267.0, 258.0, 69.0, 133.0, -177.0, -209.0, -68.0, -87.0, -171.0, 185.0, 270.0, 125.0, 179.0, 105.0, -317.0, -39.0, 133.0, -468.0, -117.0, -189.0, 32.0, -147.0, -121.0, 176.0, -294.0, -189.0, 583.0, 108.0, 8.0, -28.0, -180.0, -221.0, 16.0, 148.0, 404.0, 68.0, -205.0, -128.0, 110.0, -181.0, 30.0, -216.0, -365.0, 40.0, -22.0, 132.0, -126.0, 643.0, -48.0, 12.0, -81.0, 37.0, -207.0, -146.0, 534.0, -487.0, 221.0, 22.0, 142.0, -74.0, 90.0, -57.0, 114.0, 188.0, 323.0, 36.0, -204.0, 348.0, 102.0, 5.0, -171.0, -106.0, -282.0, 15.0, -293.0, 89.0, -213.0, -304.0, 140.0, 213.0, 46.0, -23.0, -43.0, -412.0, -184.0, 116.0, 50.0, 376.0, -163.0, 103.0, -220.0, -135.0, 139.0, 159.0, -22.0, -71.0, -332.0, -556.0, -197.0, -95.0, 112.0, -74.0, 59.0, -402.0, -160.0, 124.0, -95.0, -124.0, 269.0, 166.0, -96.0, 146.0, 24.0, 66.0, -108.0, -320.0, -247.0, -153.0, 24.0, -44.0, -4.0, 168.0, 86.0, -275.0, 227.0, -193.0, 10.0, 102.0, 167.0, 77.0, 117.0, 312.0, -106.0, 136.0, -79.0, 109.0, 443.0, -89.0, 291.0, -46.0, 141.0, 81.0, -130.0, -189.0, -56.0, 71.0, -100.0, 193.0, -149.0, 107.0, -219.0, 93.0, -549.0, -302.0};

#endif // FC2_BIAS_INTEGER_H
