#ifndef FINAL_LAYER_NORM_BIAS_H
#define FINAL_LAYER_NORM_BIAS_H

const float final_layer_norm_bias[768] = {-0.050519455, 0.09292814, -0.008083907, -0.059582688, 0.051464364, 0.05905934, 0.044246227, 0.05906067, 0.02855474, 0.006159199, 0.10488153, 0.009656168, -0.00048130544, 0.13517487, -0.13735683, 0.17824888, -0.06219923, 0.04907774, -0.048560515, -0.038502336, -0.04005969, -0.050960105, 0.16723692, 0.029881569, 0.112838306, -0.08154315, 0.058099803, 0.069603525, 0.041055877, 0.05724927, 0.1554399, -0.011314378, 0.030092508, -0.15746781, 0.117165454, 0.03167446, 0.06170472, 0.0038174163, -0.097877726, 0.03727577, -0.058996227, 0.12852617, 0.08895737, 0.07687926, -0.0006874542, 0.00285082, 0.059343647, 0.45820904, 0.01219793, -0.008610877, 0.046284452, -0.016344596, 0.0075493203, 0.076801755, 0.003899947, -0.047006432, 0.111696325, 0.01376776, 0.041054882, 0.061398584, -0.18973966, 0.3244086, 0.0020332327, 0.015885554, 0.048255485, 0.053391755, 0.00038672241, 0.034193594, 0.0338766, 0.29256442, 0.066314824, 0.110788755, -0.13083635, 0.44334617, 0.005506856, 0.29056758, 0.05576865, -0.5112292, 0.056052353, -0.28615138, 0.03660288, 0.35874772, 0.2520351, 0.057821106, -0.23709562, 0.2620746, 0.07113102, 0.07033388, -0.039707575, 0.03977198, 0.06623438, 0.09766485, 0.00095615705, 0.055910163, -0.023540363, -0.13848554, 0.04796197, 0.038032822, 0.09576417, -0.04387247, -0.065884724, 0.021948665, 0.09475823, -0.012503601, 0.05658274, -0.1679684, -0.009859799, -0.102237, -0.1305541, 0.021999579, 0.48921722, -0.107709, 0.12665866, -0.041882478, 0.031207358, 0.03224918, 0.11504059, 0.12450873, 0.09329754, -0.31638804, 0.0060585127, 0.009061723, 0.09742193, 0.05727328, 0.058158614, -0.039618462, -0.08947038, -0.0066876104, 0.05308032, -0.0134301735, -0.07554617, -0.0860484, 0.19808744, 0.036880087, 0.018687459, -0.006695534, 0.11499079, 0.06857623, -0.012578749, -0.009394208, 0.07027623, -0.08032393, 0.097825944, 0.1011072, -0.21560135, -0.15694569, 0.0011201267, -0.13741086, 0.07372031, 0.033032317, 0.04900102, 0.07906818, -0.006989231, 0.055169698, -0.01717341, -0.021705586, -0.24876922, 0.0043286677, 0.08745721, -0.1468235, 0.049749557, -0.10842821, 0.019503053, 0.014592779, -0.03305803, 0.015640894, 0.37568527, -0.014377994, 0.022706728, 0.011849466, 0.12227689, 0.36007577, 0.08595986, 0.053709753, 0.042976964, 0.035568286, -0.012011707, 0.029966246, 0.033137463, 0.069620155, 0.047410004, 0.02145943, 0.005095044, 0.045154568, -0.07261139, -0.012927605, 0.12091177, -0.0030027947, 0.028495533, 0.08876744, 0.0347475, 0.045156606, -0.20661108, -0.07118145, 0.034070592, 0.07196361, 0.07808128, 0.01752011, 0.054289266, 0.05214756, 0.050870705, 0.14113058, 0.10871115, 0.018524196, -0.22606547, 0.120218955, 0.12935741, 0.04448144, 0.041391946, 0.0004961055, 0.075428165, 0.075471014, 0.016815873, 0.029216148, 0.25798205, 0.3531437, 0.122303165, 0.24802661, -0.0035133187, -0.02798433, -0.0132733835, 0.042769704, -0.0071374034, 0.035294417, -0.13295622, -0.008538622, -0.01958736, 0.043464836, 0.021444293, -0.25347528, 0.045725208, 0.046911303, 0.0016231571, 0.0663443, 0.026507683, 0.024269322, 0.046219397, 0.007905782, 0.049720783, 0.031738803, 0.26157153, -0.0758004, 0.030021396, 0.023446476, -0.027803583, -0.007146626, 0.04694125, 0.022939939, 0.01488835, 0.052544, 0.07327174, 0.05958059, 0.08686262, -0.14695624, 0.007936084, -0.016307017, 0.07125886, -0.33083028, 0.029509546, -0.07483321, 0.05768393, 0.32255703, 0.028288241, 0.050261583, -0.020124977, 0.3976704, 0.06341864, -0.054618943, 0.0058318838, 0.15008344, 0.010623239, 0.09451101, 0.03867833, -0.11543929, 0.028952155, 0.048214357, 0.015488356, 0.052528832, 0.36616832, 0.079344206, 0.031239312, 0.0015437546, 0.1931911, 0.034506723, -0.027958827, 0.007862459, -0.071029946, -0.00076911156, 0.07992061, -0.04256158, -0.027287181, -0.06197918, 0.12749091, 0.042483505, -0.08130572, 0.08833674, 0.049578447, -0.020574654, 1.5938893e-05, 0.055512328, 0.052912503, -0.014129966, 0.13724507, 0.14293395, 0.02568846, 0.046622097, 0.054241072, -0.08607272, 0.12796211, -0.01148119, -0.045903362, -0.07010184, 0.054795776, -0.046278644, -0.0048560365, 0.030984879, 0.08072564, 0.038220704, 0.05376445, 0.098776445, 0.03458057, -0.08575129, -0.016866969, 0.03207643, 0.09216736, -0.04828369, 0.15254085, 0.07064975, -0.123810254, 0.072791055, -0.28107518, -0.00049308356, 0.09014031, -0.011033836, 0.050260637, 0.050448578, 0.013543609, 0.011220588, -0.25230443, 0.028514462, 0.06923138, -0.09411364, 0.044566818, 0.06749438, -0.05409622, 0.04767059, 0.10138163, -0.24504372, 0.029468434, 0.06861747, 0.40724388, 0.0070455926, 0.002629167, 0.08061512, 0.027446548, 0.17540117, 0.036752153, -0.14071777, 0.039902166, 0.2900831, 0.08755875, -0.14941613, -0.012898928, 0.07992353, 0.03578184, -0.0028961063, 0.14770062, 0.081551395, 0.0017641729, 0.045175083, -0.09902739, 0.03964393, 0.025069343, 0.059877586, 0.0038925987, 0.08402312, -0.13756102, 0.06581378, -0.10233145, 0.030495914, 0.04442342, -0.08274495, 0.06401389, 0.06927685, 0.0413589, 0.025292939, -0.022075847, -0.050197072, 0.07042808, 0.0067858333, -0.18660547, -0.12372084, 0.044870988, 0.11194666, -0.01428278, -0.045249753, 0.0027447008, -0.23856445, 0.2886048, 0.086462766, 0.054077815, 0.037300926, 0.028923567, -0.2867407, 0.103255056, -0.14942844, 0.050541997, -0.018810002, 0.22619475, 0.35738516, 0.0073546926, 0.07653661, 0.057904035, 0.0044935965, 0.20172825, 0.06841998, 0.021670852, 0.23029652, 0.042123336, -0.021826478, 0.021790098, -0.010921631, 0.042294182, 0.031714797, 0.043411337, 0.04676743, 0.026745852, 0.07362554, -0.15010054, 0.051541284, -0.07618868, -0.05216564, 0.0028302157, -0.10122807, -0.31556016, 0.07799169, -0.019029109, 0.047732934, 0.09748214, 0.04888761, 0.0029537505, -0.013442288, -0.025374858, 0.048487987, 0.07655901, -0.012992167, 0.052642357, 0.108525835, 0.028196622, -0.040562965, 0.028533474, 0.0035138628, 0.003404176, 0.5410754, 0.040004257, 0.12784605, 0.012397068, 0.056395385, 0.08254759, 0.029162385, 0.05667574, 0.038509592, 0.039846826, 0.076928444, 0.032904793, -0.10316478, -0.018211288, 0.03175242, 0.010686332, 0.045827903, -0.0019635176, 0.0578924, 0.07940472, 0.12904195, 0.055028647, 0.035363767, 0.26599097, 0.070413515, 0.33025622, 0.014666641, 0.046935335, -0.026330283, -0.05191188, 0.029469687, 0.04643945, -0.021727432, 0.1916891, 0.032597482, 0.014278371, 0.061159827, 0.046749875, 0.044252187, 0.02888495, 0.067042395, -0.034741823, 0.081609674, -0.00090889627, 0.11764045, 0.24366863, 0.052698314, 0.024210317, 0.0315816, -0.011082827, -0.030130735, 0.09433152, -0.08750578, 0.009523317, 0.0559693, -0.038915224, 0.25190672, 0.10664767, 0.026357088, 0.041319486, 0.055124145, 0.07487511, -0.07952217, 0.04521624, 0.05092281, 0.03818647, -0.24338017, 0.041989155, 0.03467788, 0.04820747, 0.092818804, 0.11125051, -0.019325472, -0.029449962, 0.03560761, 0.028854905, 0.086081125, -0.02862352, 0.05333651, 0.018553488, -0.058061644, 0.024154821, -0.35661733, 0.055537105, 0.099596776, -0.21120365, -0.033488955, 0.02232255, 0.029230405, -0.0024936781, 0.05700423, 0.18168715, 0.0016234671, -0.044583157, 0.04426934, 0.0035055135, 0.018363431, 0.028295357, 0.48869273, 0.0723267, -0.10804561, 0.0417351, 0.048190545, 0.010756877, 0.07626278, 0.113659576, 0.010090279, -0.010591273, 0.4653558, -0.032830395, 0.029020315, 0.04721249, 0.03485866, 0.008000628, -0.011035385, 0.00048809047, 0.027335238, -0.47695142, -0.03927937, 0.020453395, -0.28634006, -0.04335868, -0.039425332, 0.018903052, -0.045117944, 0.105260596, -0.0019118147, 0.092758834, 0.0017625521, 0.011580581, 0.0448066, -0.037493125, 0.0058827563, 0.05451515, 0.059813034, 0.9421813, 0.027759135, 0.07720505, -0.15826683, 0.08587877, 0.018551627, -0.027916327, -0.0139925275, -0.13687605, -0.02017344, 0.13789904, 0.061690006, 0.056333154, -0.034132276, -0.022150606, 0.09300191, -0.13442437, 0.030873273, 0.058483988, 0.020229485, 0.0081246365, -0.0031940464, 0.05203872, 0.014610984, -0.367766, 0.08341756, 0.027038451, 0.012430095, 0.021980673, 0.056065153, 0.013603632, -0.02141592, 0.0025573599, 0.03934496, 0.01443429, 0.11600585, 0.2964512, 0.07361905, 0.05741271, 0.038089883, -0.049476795, 0.007916669, 0.046699565, -0.04562706, -0.020069586, 0.05212342, 0.28542566, 0.013205211, 0.039312493, 0.059199534, 0.06298606, 0.00014594533, 0.45011505, 0.06842596, -0.026771612, 0.18951344, 0.027295062, 0.024306113, -0.15363677, 0.05685464, 0.032328364, 0.08162426, 0.045040652, -0.009309883, 0.1727766, 0.0052582687, 0.09078509, -0.065854296, -0.1281875, 0.056815945, 0.04944716, -0.06826462, 0.067121744, 0.16560872, 0.057123374, -0.09242011, -0.38432795, -0.029980062, 0.00032332618, 0.09024281, 0.05769916, -0.13346298, 0.107294574, 0.08241318, -0.009861185, 0.026540313, 0.042963848, 0.01785529, 0.26644552, 0.13578214, 0.124769986, 0.05403253, 0.02862433, 0.06245679, 0.043842603, 0.073826425, 0.0428485, 0.023784656, -0.016109826, 0.032385003, -0.038974196, 0.028681038, -0.26428497, 0.005053394, 0.021615634, 0.0490557, 0.08378531, 0.07646569, 0.013755504, -0.2828864, 0.05900515, 0.0559773, 0.009879784, 0.020771692, 0.028188199, 0.09229844, 0.036492374, 0.019007793, 0.064331554, 0.033651795, 0.074963264, 0.03068709, -0.08785212, 0.009742824, -0.18429308, -0.13991934, 0.011529155, 0.017733749, 0.023381151, -0.29913604, -0.047770046, -0.02651853, -0.26396033, 0.018319536, 0.028550731, 0.046601832, 0.056880668, -0.0035942572, -0.005594745, 0.020549035, -0.06429857, 0.044583604, 0.018680954, 0.44813865, -0.018581204, 0.05212517, 0.012822298, 0.23896745, -0.071293935, 0.04186959, 0.05927275, 0.029036056, 0.17981109, -0.1478244, 0.07100328, 0.020606812, 0.038541935, 0.072169445, 0.045355853, 0.08795336, -0.13299668, 0.27614942, 0.060083807, 0.07082468, 0.27927676, 0.088851795, -0.09368137, 0.029656027, 0.04574262, -0.09672362, 0.012958682, 0.036965787, -0.032979712, 0.10407311, -0.088485025, 0.048825826, -0.049450807, 0.017719757, -0.051657386, -0.27221352};

#endif // FINAL_LAYER_NORM_BIAS_H
