#ifndef SELF_ATTN_V_PROJ_BIAS_INTEGER_H
#define SELF_ATTN_V_PROJ_BIAS_INTEGER_H

const float self_attn_v_proj_bias_integer[768] = {586.0, 334.0, 1469.0, -506.0, 50.0, 1802.0, 7290.0, 2127.0, 286.0, 526.0, 1507.0, 29.0, -865.0, -626.0, -409.0, -594.0, -490.0, 106.0, -905.0, 4741.0, -498.0, 1010.0, 265.0, 101.0, -492.0, 318.0, 1510.0, -1723.0, 520.0, 2768.0, 273.0, -404.0, 246.0, 251.0, 280.0, 689.0, -436.0, -2090.0, -5135.0, -118.0, 131.0, 89.0, -997.0, 1466.0, -3258.0, 164.0, -211.0, 310.0, -998.0, 232.0, -1575.0, -4976.0, -1841.0, 285.0, 398.0, 1414.0, 410.0, -281.0, 852.0, 264.0, 4038.0, -450.0, -900.0, -301.0, -5.0, -162.0, 278.0, 105.0, -849.0, -215.0, -506.0, 169.0, 284.0, 9.0, -793.0, 134.0, 208.0, 18.0, 361.0, 374.0, 72.0, -285.0, -885.0, -35.0, -680.0, 284.0, -94.0, -462.0, 845.0, -123.0, 15.0, 62.0, -399.0, -235.0, -565.0, 589.0, 13.0, -352.0, 383.0, -11.0, 668.0, -74.0, -186.0, -14.0, 124.0, -207.0, -92.0, 93.0, -305.0, 232.0, -136.0, -289.0, 10.0, -95.0, -348.0, 168.0, 98.0, -180.0, 54.0, -59.0, 250.0, 101.0, -297.0, -276.0, 25.0, -13.0, -865.0, 420.0, -242.0, 23.0, -446.0, 12.0, -94.0, -68.0, 79.0, 622.0, 227.0, -50.0, -559.0, -133.0, -413.0, -408.0, 1404.0, 541.0, 225.0, 115.0, 50.0, -125.0, 205.0, -382.0, -179.0, -1432.0, -1546.0, 155.0, 12.0, -147.0, 270.0, -49.0, 32.0, -558.0, -2379.0, -496.0, -32.0, 251.0, 248.0, -169.0, -293.0, -269.0, -258.0, -779.0, 50.0, -90.0, -74.0, 32.0, -91.0, 18.0, 1670.0, 840.0, 108.0, -835.0, 150.0, 540.0, -111.0, 533.0, 109.0, 487.0, -303.0, -1351.0, 399.0, 265.0, 576.0, -300.0, 148.0, 637.0, -110.0, -477.0, 150.0, -1001.0, 181.0, -413.0, 77.0, 258.0, 3.0, 22.0, -66.0, 1553.0, -366.0, 17.0, 14.0, 38.0, 472.0, 385.0, -77.0, -312.0, 205.0, -261.0, -162.0, -221.0, -60.0, 179.0, 333.0, 375.0, -219.0, -430.0, 235.0, -289.0, -150.0, -363.0, -682.0, 87.0, 246.0, -690.0, -52.0, 536.0, 494.0, 18.0, 433.0, -701.0, 226.0, -28.0, -1118.0, -18.0, -428.0, -85.0, -0.0, 387.0, -123.0, 37.0, 150.0, -243.0, -49.0, 264.0, -296.0, 434.0, 149.0, -292.0, 154.0, 33.0, 255.0, 630.0, 2204.0, -357.0, 202.0, -421.0, -135.0, -109.0, -62.0, 94.0, 151.0, 1082.0, 8.0, 397.0, 533.0, -506.0, 566.0, 701.0, -388.0, -472.0, -500.0, -78.0, 16.0, 936.0, -603.0, 1874.0, 222.0, 778.0, 11009.0, 253.0, -777.0, 34.0, -75.0, -491.0, -695.0, 558.0, 378.0, -11.0, 124.0, -703.0, 24.0, 484.0, 471.0, 1063.0, 1070.0, 596.0, 319.0, 261.0, -515.0, 543.0, -76.0, 1064.0, 273.0, -30.0, -339.0, 57.0, -5284.0, 251.0, -48.0, 1276.0, 1205.0, 161.0, 1114.0, 674.0, -299.0, 249.0, 2461.0, -2216.0, -237.0, 524.0, -2763.0, -1460.0, -583.0, -190.0, -1288.0, 10372.0, 490.0, 808.0, -890.0, -45.0, -65.0, -532.0, -2160.0, 1379.0, 5660.0, -594.0, 746.0, 914.0, 1478.0, -1297.0, -725.0, -823.0, -1369.0, 864.0, -1271.0, 995.0, 1200.0, 654.0, 194.0, -4426.0, -555.0, -318.0, -81.0, -1292.0, 342.0, 582.0, -2222.0, 767.0, -2576.0, -1922.0, -246.0, -475.0, 374.0, -60.0, -955.0, 695.0, -294.0, 201.0, 329.0, 570.0, 166.0, -629.0, -338.0, 904.0, -397.0, 853.0, -157.0, 1411.0, 2316.0, 376.0, -1662.0, 837.0, 1824.0, 150.0, -104.0, -684.0, 3642.0, 519.0, -686.0, -489.0, -195.0, -396.0, 1977.0, -914.0, -841.0, 1492.0, 560.0, -817.0, 953.0, -135.0, 1461.0, 1148.0, -607.0, -897.0, 13.0, 638.0, -646.0, 259.0, 167.0, -717.0, -1929.0, 4014.0, 1935.0, 429.0, -839.0, 822.0, 1194.0, -717.0, -251.0, 493.0, -861.0, 590.0, -114.0, -167.0, 1770.0, -971.0, -2463.0, -983.0, -1499.0, 1506.0, 147.0, -699.0, -540.0, -355.0, -2561.0, 636.0, -1009.0, -158.0, -635.0, 1137.0, 90.0, 735.0, 451.0, -205.0, -64.0, 98.0, 285.0, 267.0, -488.0, 677.0, 57.0, 158.0, -84.0, 585.0, -582.0, -326.0, 805.0, -986.0, 862.0, 403.0, 49.0, 28.0, 706.0, -328.0, 177.0, -43.0, -111.0, 187.0, -195.0, -281.0, -1308.0, -203.0, 612.0, -222.0, 176.0, -892.0, 61.0, 1391.0, -322.0, -538.0, -476.0, -741.0, -198.0, -862.0, -292.0, 125.0, 294.0, 84.0, -34.0, 194.0, 1076.0, -22.0, -255.0, 419.0, -18.0, -345.0, -1062.0, 132.0, 135.0, 676.0, -584.0, -255.0, 595.0, -48.0, -285.0, -1175.0, -114.0, 49.0, -131.0, 1211.0, 17.0, 246.0, 154.0, 435.0, 89.0, 215.0, 178.0, 6.0, 609.0, -154.0, -527.0, 64.0, 304.0, 85.0, -174.0, -759.0, 154.0, -224.0, -318.0, -576.0, 261.0, -374.0, -445.0, 505.0, 136.0, 317.0, -41.0, 199.0, 311.0, -297.0, 361.0, 19.0, -283.0, -212.0, 457.0, -209.0, -409.0, -534.0, 1084.0, -148.0, -283.0, -2082.0, 207.0, -785.0, 576.0, 144.0, 595.0, 22.0, -384.0, -20.0, 498.0, 461.0, 30.0, 277.0, 34.0, 68.0, 1183.0, -596.0, -609.0, 1398.0, -2089.0, 520.0, 866.0, 1567.0, -15815.0, -56.0, 257.0, -132.0, -487.0, 3306.0, -202.0, -1676.0, 287.0, 9666.0, 634.0, -958.0, 72.0, -63.0, -492.0, -859.0, 294.0, -432.0, -80.0, -202.0, -634.0, 600.0, -268.0, -22.0, -119.0, -361.0, 236.0, -196.0, -378.0, -472.0, 32.0, -620.0, 118.0, 3018.0, 384.0, -1321.0, 249.0, 1247.0, 24.0, -386.0, 1035.0, 3180.0, 306.0, 666.0, 1180.0, -35.0, -7616.0, -683.0, -66.0, -2388.0, -305.0, -208.0, 1661.0, -534.0, -2175.0, -199.0, -1129.0, -7578.0, 73.0, -104.0, 328.0, 625.0, -714.0, -186.0, 181.0, 366.0, -575.0, -151.0, 283.0, 588.0, 53.0, 744.0, -76.0, 186.0, 211.0, 11.0, 734.0, 63.0, -442.0, -50.0, -1186.0, 1386.0, -596.0, 122.0, 212.0, -135.0, -69.0, -318.0, -427.0, 126.0, -258.0, 420.0, -46.0, -1408.0, -736.0, -1387.0, 253.0, -230.0, 1653.0, 509.0, -786.0, 1363.0, -1217.0, -662.0, -88.0, -214.0, -1188.0, -680.0, -801.0, 502.0, 319.0, -146.0, -615.0, 748.0, 301.0, -80.0, -929.0, 303.0, -26.0, -293.0, -1266.0, -70.0, 9.0, 182.0, 892.0, 157.0, 22.0, -286.0, 1467.0, 439.0, -273.0, -875.0, 91.0, -316.0, 218.0, 328.0, -1456.0, -230.0, 185.0, -174.0, 11.0, -163.0, -77.0, -1069.0, -11141.0, -2553.0, -385.0, -170.0, -756.0, -72.0, -1015.0, 6976.0, -13657.0, 3324.0, 64.0, 288.0, -9563.0, -460.0, 7213.0, -518.0, 200.0, -2943.0, -208.0, 4582.0, -2477.0, -520.0, -421.0, -1092.0, -6828.0, 415.0, 236.0, -185.0, -8.0, -269.0, 231.0, -7946.0, 21.0, 701.0, 39.0, -383.0, -2559.0, 746.0, 45.0, -1650.0, 269.0, 400.0};

#endif // SELF_ATTN_V_PROJ_BIAS_INTEGER_H
