#ifndef SELF_ATTN_OUT_PROJ_BIAS_H
#define SELF_ATTN_OUT_PROJ_BIAS_H

const float self_attn_out_proj_bias[768] = {-0.09887548, -0.15407602, -0.0070496933, 0.0829456, -0.0068590585, -0.0006018998, -0.026691023, 0.026753116, 0.055261802, 0.049032256, -0.02455057, 0.074454784, -0.022862002, 0.06900621, -0.030502789, 0.033193454, -0.040805053, 0.025742523, 0.082058765, 0.07909382, 0.0023371193, 0.042567786, -0.021550247, 0.002468789, -0.06735493, 0.076413095, -0.02781946, 0.104386754, 0.0011510593, 0.018556787, 0.0027132053, -0.036135443, 0.05863673, 0.061693963, -0.0709216, -0.14689326, -0.14318405, 0.064727776, 0.010089798, 0.073449, -0.110834666, 0.01357851, 0.013357149, -0.0022054305, -0.18915838, 0.035336386, -0.00092742045, 0.00931382, -0.06905271, -0.039253645, 0.06181792, -0.111793764, 0.03341711, 0.110956535, 0.03162902, 0.05455908, 0.035058334, 0.07339083, 0.022129579, 0.12726642, 0.049944468, 0.0550116, -0.14919317, -0.028226322, -0.036287624, -0.018454384, -0.03996574, 0.0052544405, 0.04007389, -0.060512282, 0.010046256, 0.038833305, -0.27678892, -0.042265978, 0.10350588, 0.02126993, 0.06504102, 0.00018151553, -0.026821647, 0.010466584, -0.015340772, 0.084507704, 0.105225705, -0.026443357, 0.03366623, 0.0777333, 0.06622476, 0.05938504, 0.07104671, 0.037898026, 0.067782104, -0.06686108, -0.11848834, -0.0075743604, -0.101230934, 0.0847883, 0.12384043, 0.044110663, -0.26002765, -0.074169055, 0.12681347, -0.013229109, 0.06861125, 0.17425177, -0.042471122, -0.060956974, 0.040181156, -0.0028528052, -0.38364244, 0.020918813, 0.032946907, 0.020370081, 0.10752491, 0.025682027, 0.023804706, 0.020999065, -0.0028171956, 0.0007412176, 0.015749395, -0.06568162, 0.04624113, -0.040404413, -0.049725056, -0.090215445, 0.029724149, 0.057342682, -0.04822909, -0.12433112, 0.038081378, -0.20420952, -0.17269489, -0.16252364, -0.16184883, 0.061808955, -0.056600913, 0.037572283, -0.086534254, -0.10849901, 0.093331605, 0.14060827, -0.06790079, -0.115870245, -0.17306925, -0.014133195, 0.044826403, 0.08354206, -0.02214696, 0.036985215, -0.04509199, 0.028783724, 0.07873838, -0.043909445, -0.039445557, -0.117145225, -0.07956817, -0.113265894, 0.056442305, -0.022071773, -0.053070933, 0.09534039, 0.019448029, 0.027347695, -0.13487744, 0.017464878, -0.07466063, -0.093479775, 0.028238831, -0.07603379, 0.022742866, 0.03337774, 0.019309986, -0.13301036, -0.14574684, 0.0247237, 0.02626735, -0.07800446, -0.012047467, -0.06174128, -0.055155583, -0.08263416, 0.051578283, -0.009034804, 0.08844816, 0.037020963, -0.039674748, 0.026745502, -0.13524762, -0.024042295, 0.077138186, 0.08873654, 0.006583489, -0.06548551, -0.042195566, 0.14108624, -0.0108775515, 0.015012993, 0.1239381, -0.025158938, -0.08641588, -0.11667746, -0.0869657, -0.12132801, 0.046775226, 0.11099432, -0.0016299853, 0.03482602, -0.037517622, -0.22418536, -0.11780252, -0.13672364, -0.10014451, 0.085594244, -0.03479696, -0.01884906, -0.001556578, 0.035723988, 0.029088728, -0.07918834, -0.02822972, -0.0332474, -0.02041298, -0.12488162, -0.10161417, 0.1163153, 0.07152551, -0.056370005, 0.007256575, 0.05989462, -0.020131964, -0.043623053, -0.15611283, -0.017288698, -0.051665153, 0.0382325, 0.12739521, 0.057795323, -0.046588782, -0.008353225, -0.0029272402, -0.03243843, -0.054383937, -0.104080446, -0.007986672, 0.058407176, 0.00018039571, 0.13121623, -0.10580122, -0.039893426, 0.12804505, -0.0040405304, -0.15686713, -0.10727245, 0.09927297, 0.04327663, 0.008774131, 0.079488404, 0.025243605, -0.1378546, -0.07186835, -0.17409435, 0.025237055, 0.028842213, -0.024368173, 0.044477154, 0.11845395, 0.023970563, 0.17573942, -0.03700372, 0.0005387331, 0.019806588, 0.038501795, -0.022504866, 0.014072472, 0.0006279862, 0.025923314, -0.076344274, -0.12453059, 0.09778719, 0.109519064, -0.05286238, 0.04307535, 0.056234416, -0.07052053, 0.046690274, 0.06380461, 0.057211682, 0.07541573, 0.10694398, -0.0404055, -0.08553505, 0.114842944, 0.028746905, 0.060144875, -0.11123891, 0.029871805, 0.04084384, 0.022308208, 0.092545696, -0.040684637, -0.06624173, -0.01984087, -0.055098914, 0.030206932, 0.049376413, -0.08653752, -0.001088998, 0.047728967, 0.05600293, 0.09609774, 0.020355273, -0.105615914, -0.025950214, -0.15954551, -0.1599364, 0.08707626, -0.077015564, 0.059593692, -0.11581017, 0.14590624, -0.09684864, 0.04114897, 0.040122762, -0.061164442, -0.31061023, -0.11259288, 0.079736754, 0.0147743905, -0.07684195, -0.030354604, -0.08584471, 0.04506326, -0.012088901, -0.089324534, -0.00083728146, -0.04280788, 0.01793026, 0.110555224, -0.11189594, 0.084206775, 0.0181801, -0.05863277, -0.0030782, -0.045210883, -0.05606477, 0.037242, 0.023067411, 0.1369423, -0.052204706, -0.031169293, 0.037233878, -0.062411673, -0.099540815, -0.0126232365, -0.020876436, -0.05557219, -0.008217466, -0.027073067, 0.01475117, -0.014305196, 0.05937467, 0.028227469, 0.004364491, -0.016354362, -0.06435271, 0.05776993, -0.029945312, -0.027577389, 0.099303536, -0.031982284, -0.023662552, -0.112430595, -0.049385753, 0.034021307, 0.047990847, -0.027363196, 0.029896667, 0.027100751, -0.023072498, -0.010965304, -0.00820209, 0.029872889, -0.0723509, 0.0053850734, 0.030152777, 0.15873002, 0.023003716, -0.07080454, 0.020417098, -0.04681981, -0.19424202, 0.014185336, 0.029316844, 0.072336875, 0.003982939, -0.15820664, -0.0199986, -0.015121107, -0.005899518, -0.020977879, -0.13348682, -0.032554712, 0.13821957, 0.049322277, -0.022524163, -0.07975543, -0.074724965, -0.13196439, 0.051938668, 0.043243904, 0.030153321, 0.028455932, -0.0029576884, -0.048446443, 0.084209844, 0.0036310512, -0.031144692, -0.0049314587, -0.040245146, 0.019455753, 0.015157849, 0.03926916, -0.21711859, -0.05641038, 0.02801793, -0.012001752, 0.08165853, -0.004165632, -0.028725509, 0.06392385, -0.019912805, 0.061054587, 0.02568223, 0.07066484, -0.012057473, -0.000885021, -0.15014872, 0.0016663362, -0.09384907, -0.007496203, 0.090195924, -0.113927096, -0.026003713, -0.07299569, 0.04253804, 0.023767138, 0.034861073, -0.049367066, -0.09671171, -0.009442289, -0.037809376, 0.18326567, 0.043226793, 0.0037790106, 0.27264497, -0.059203003, -0.07758342, -0.027266975, 0.06938906, -0.0074165845, -0.0059509347, -0.049505327, -0.009637664, -0.10267222, -0.08736641, 0.018391818, -0.21785384, -0.03279894, 0.08403676, 0.07937166, -0.054348502, 0.08422687, -0.10458904, -0.072221115, 0.039316785, -0.11127235, -0.074232936, 0.023919234, 0.06776758, -0.23388359, 0.0349011, 0.063857235, 0.061894923, 0.06352371, -0.06704429, 0.023590233, -0.027623184, 0.094862476, -0.105699226, -0.027158795, -0.13684356, 0.052225545, 0.07429047, -0.05792874, -0.097849324, -0.03484264, 0.06724915, -0.052968368, 0.02937087, -0.07022005, -0.0077270274, -0.09292104, 0.14750034, -0.038918167, 0.111000136, -0.19798033, 0.042842768, -0.006124664, 0.049481977, 0.15571694, -0.023146788, 0.035742585, 0.10752709, -0.029588856, -0.11754149, 0.29243472, -0.025819115, -0.018375902, 0.020331135, 0.010054352, -0.04554226, -0.03323567, -0.08388811, -0.011534251, 0.0038939056, -0.051508434, -0.03754856, -0.014648774, -0.049431942, -0.0008207351, -0.042948052, 0.011285967, -0.052101735, 0.09711986, -0.14406729, 0.098069325, -0.21303968, 0.072341666, 0.1624529, 0.009079233, 0.08468733, 0.10512686, 0.055986505, 0.009232382, -0.014656558, -0.23467243, 0.072783634, 0.002501628, -0.111731105, 0.020024797, 0.073327124, 0.012679398, -0.016321117, 0.031395424, -0.05317204, -0.025047164, 0.07677091, 0.08390742, 0.004414393, -0.112046935, -0.0044801617, 0.0760873, -0.13044958, -0.021075923, 0.012602125, 0.049685657, 0.01649163, 0.16279426, 0.029159093, 0.06495163, 0.08373938, 0.12577961, -0.035993055, -0.1164834, 0.007757424, 0.019541368, -0.01136286, -0.03436383, 0.0069824434, -0.03154655, 0.057784, 0.05467008, -0.07166172, 0.014578713, -0.009854673, 0.07535809, 0.10052459, 0.05952744, 0.17179886, 0.26832074, 0.04499467, -0.02616921, 0.0932038, 0.019827101, 0.0826447, 0.014837276, 0.02095986, 0.06769227, 0.019283757, -0.012537305, -0.1317819, -0.034464728, -0.08246944, 0.039975923, -0.23427348, -0.086862646, -0.07531485, 0.052428916, -0.069311164, -0.08913834, 0.045260377, -0.097068384, 0.048526507, -0.23589133, 0.048770208, 0.041350525, 0.037705116, -0.053906254, 0.036302608, -0.11737304, 0.055825833, 0.024991333, -0.07744445, 0.15497206, -0.040613417, 0.018606452, -0.074632384, -0.054517042, 0.025486052, 0.08044524, -0.10866423, -0.0821301, -0.06827959, -0.04057671, -0.02616457, 0.010793707, 0.0026910657, 0.07844576, -0.036889736, 0.05865774, -0.045224078, 0.05620168, 0.043861244, 0.020499168, 0.090551354, 0.02631835, -0.0060790214, -0.10934607, 0.055071995, -0.0036543687, -0.019124735, -0.021116886, 0.15059456, 0.029801836, -0.06532576, 0.062048923, 0.017674977, 0.09709771, 0.1783896, 0.09805854, 0.025031673, -0.085023604, 0.15004843, 0.03643458, -0.019894095, 0.0029626798, 0.03200831, 0.16498473, 0.056353822, 0.07199114, 0.042622417, -0.083542906, 0.0878386, 0.13691883, 0.015720444, 0.022205856, 0.0356181, 0.08973469, 0.11648751, 0.023545928, -0.08074672, 0.0001708709, 0.07037274, 0.07276412, 0.025249535, -0.011328802, -0.067402564, 0.15421249, -0.20348915, -0.030033853, -0.0016742629, -0.08426466, 0.277476, -0.0062013688, 0.06278905, 0.058125954, 0.094093956, -0.0643208, -0.04496858, 0.06322555, 0.004103086, 0.01315149, 0.07553716, -0.13532801, -0.10880893, -0.069773704, -0.022469128, 0.026235688, -0.10905181, 0.01992509, -0.07709943, 0.055567723, 0.05848883, 0.15790503, -0.035545275, 0.10623478, -0.21134515, -0.058879618, -0.20785287, -0.07149707, 0.115192726, -0.03356533, -0.043901276, 0.086652376, -0.03485919, 0.05095249, 0.14960684, 0.17944948, 0.09043388, 0.012206404, 0.06141672, 0.06857111, 0.03619006, -0.015216624, 0.04849634, 0.032419942, -0.04670671, 0.11663009, 0.09052889, -0.048659716, -0.02895316, -0.021216007, 0.16535167, 0.00953967, -0.027654625, -0.117966585, 0.029186936, 0.03122535, -0.048033513, -0.058476526, 0.09218031, 0.007244959, 0.036325883, 0.056171272, 0.055788495, -0.029147945, -0.12244369, 0.0071567176, 0.029085495, -0.1361714, -0.056175556, 0.07426641, -0.03255823, 0.14580525, 0.054154236, 0.06876989, -0.006213008, -0.07079415, 0.02714464};

#endif // SELF_ATTN_OUT_PROJ_BIAS_H
