#ifndef SELF_ATTN_Q_PROJ_BIAS_INTEGER_H
#define SELF_ATTN_Q_PROJ_BIAS_INTEGER_H

const float self_attn_q_proj_bias_integer[768] = {2709.0, 489.0, -3414.0, 5602.0, 7838.0, -3480.0, -1000.0, 2181.0, -594.0, 3798.0, 5339.0, 4576.0, 1837.0, -1558.0, 5952.0, -3115.0, -2592.0, 1141.0, 255.0, -20.0, -5837.0, 1009.0, -502.0, -1070.0, -4749.0, 2193.0, 1599.0, -4831.0, -568.0, 3092.0, 601.0, -4086.0, -2890.0, -4122.0, 1096.0, -2057.0, 4847.0, 810.0, 1293.0, 2070.0, -780.0, 1419.0, 1064.0, -574.0, 2692.0, -845.0, 2655.0, 2309.0, 1656.0, -3844.0, 2836.0, 1468.0, -4419.0, 851.0, -6178.0, -2349.0, 486.0, 1396.0, -4723.0, 183.0, 4924.0, -1326.0, -5696.0, 1966.0, 1778.0, -3720.0, -49.0, -3408.0, 2069.0, 980.0, 2987.0, -897.0, 2458.0, 1007.0, 3536.0, -5181.0, 662.0, -4694.0, 831.0, 4845.0, -562.0, -3736.0, 724.0, -3765.0, -910.0, -266.0, 2022.0, -101.0, -2803.0, 2038.0, 1553.0, 962.0, 1128.0, 809.0, 58.0, -4833.0, -1657.0, 807.0, -501.0, -4476.0, -1622.0, 1231.0, 250.0, 4571.0, -3371.0, 138.0, -1687.0, -541.0, -4702.0, -72.0, 3506.0, -598.0, -5458.0, -4206.0, -538.0, 54.0, -4513.0, 2622.0, 1141.0, -964.0, 886.0, -1603.0, -542.0, -1178.0, -2827.0, -1362.0, 393.0, -1283.0, 2128.0, -2541.0, -4910.0, -740.0, -1608.0, -264.0, -795.0, -2200.0, 1752.0, -1403.0, -1703.0, 1690.0, 3293.0, 82.0, -1033.0, -879.0, 2710.0, -3485.0, -3229.0, -531.0, 2419.0, 212.0, 131.0, -582.0, 1561.0, 776.0, -2797.0, 1644.0, 1255.0, -1317.0, -642.0, 3308.0, 2210.0, 973.0, 307.0, 793.0, -697.0, 1182.0, -3329.0, 47.0, -2041.0, 1282.0, 978.0, 2614.0, -750.0, -957.0, -14.0, 2990.0, -3449.0, 938.0, -2531.0, -138.0, 2909.0, -541.0, -1884.0, -2304.0, -1075.0, 1785.0, -2446.0, -2426.0, -724.0, -1441.0, -884.0, 1716.0, -542.0, 1122.0, -1580.0, 1139.0, 1075.0, 1007.0, 849.0, 932.0, -1373.0, -1280.0, -1972.0, 443.0, 127.0, 1442.0, 69.0, 3220.0, -173.0, 839.0, -10.0, -485.0, -721.0, 1814.0, -1135.0, 2234.0, 612.0, 3679.0, 50.0, 436.0, -332.0, -3516.0, -0.0, 1.0, 420.0, -993.0, 795.0, 1119.0, -2003.0, 227.0, -416.0, 1032.0, -273.0, -3071.0, 984.0, -1748.0, -2129.0, 390.0, -816.0, 610.0, -1462.0, -1872.0, -877.0, -2297.0, 471.0, -2654.0, -3417.0, 1659.0, -429.0, -1785.0, -22.0, 1331.0, -889.0, -786.0, -1894.0, -958.0, -924.0, 1331.0, 1517.0, 93.0, 945.0, 180.0, -75.0, 1612.0, -442.0, 2447.0, 895.0, -418.0, 533.0, -105.0, 1185.0, 324.0, 2049.0, -1484.0, 709.0, -760.0, -736.0, 811.0, 259.0, -1715.0, 2882.0, 1505.0, 1170.0, -638.0, 1091.0, -641.0, -2659.0, 1694.0, -213.0, -215.0, -1848.0, -2916.0, -522.0, -1274.0, 1253.0, -1121.0, -1425.0, 26.0, 16.0, 569.0, 1372.0, 2832.0, -1007.0, -1830.0, -403.0, -438.0, -1673.0, -609.0, 473.0, 2278.0, -1709.0, -2797.0, -639.0, 2803.0, -212.0, 32.0, 665.0, -421.0, 1127.0, -1761.0, -1538.0, -3470.0, -3446.0, -3323.0, 1694.0, -2720.0, 466.0, 1325.0, 250.0, -2690.0, -3362.0, -3495.0, -2980.0, -1350.0, -1139.0, 5402.0, 1968.0, -115.0, -118.0, 3036.0, -216.0, -503.0, 4387.0, 708.0, -4182.0, 3851.0, -579.0, 456.0, -2200.0, 2850.0, 3068.0, -1140.0, 2383.0, -3744.0, -933.0, 353.0, 128.0, 4384.0, 4297.0, -1804.0, 4548.0, -4286.0, -200.0, 1156.0, -3626.0, -61.0, 888.0, 3945.0, 47.0, -3363.0, 609.0, -85.0, 1391.0, 4486.0, 4723.0, -1868.0, -3925.0, -3471.0, -3080.0, -3812.0, -4318.0, 2187.0, -1523.0, 1842.0, 1241.0, -1106.0, 337.0, 4415.0, 3243.0, -3681.0, 1754.0, -1402.0, -2122.0, 702.0, 1084.0, -762.0, 4063.0, 1076.0, 799.0, -222.0, -4022.0, -4524.0, 562.0, 1831.0, -654.0, -5798.0, -543.0, -2569.0, -317.0, 5298.0, -2597.0, 395.0, -417.0, -4052.0, -5076.0, -3191.0, -893.0, 3538.0, -1844.0, -2184.0, 2584.0, 467.0, -4541.0, -672.0, -222.0, 1627.0, -1080.0, -4972.0, -2936.0, 876.0, -3677.0, 1498.0, -639.0, -1883.0, -808.0, 669.0, -3324.0, 5954.0, -2255.0, -1323.0, -2784.0, 1228.0, -699.0, -66.0, -1587.0, 5006.0, 2739.0, 98.0, 241.0, -1342.0, -1973.0, -2284.0, 63.0, -3342.0, 1337.0, 544.0, 1106.0, 107.0, -1169.0, 792.0, -1948.0, -2748.0, 3109.0, -1996.0, 1024.0, -1119.0, -1896.0, -3430.0, -1498.0, 1141.0, -3192.0, -1809.0, 278.0, 4380.0, 4080.0, 1156.0, 1737.0, 3868.0, 879.0, 313.0, -692.0, 38.0, -1083.0, 1162.0, 3805.0, -1237.0, -1149.0, -2570.0, -998.0, -1475.0, -2204.0, -2037.0, 1032.0, 3906.0, -2981.0, 2950.0, 497.0, -2130.0, -3532.0, 424.0, -2678.0, -2671.0, 2175.0, 846.0, -3303.0, 119.0, 2981.0, 587.0, -1201.0, -2969.0, -819.0, 2195.0, -784.0, -4060.0, -514.0, -327.0, -1357.0, 904.0, -681.0, 325.0, 1268.0, -45.0, 749.0, 1243.0, 272.0, 1938.0, -25.0, 173.0, 1525.0, 76.0, 1042.0, -2022.0, 2077.0, 474.0, -1988.0, -1189.0, 1753.0, 1106.0, -1593.0, 3587.0, 847.0, 4216.0, 3552.0, 1192.0, 82.0, 306.0, 1771.0, -1136.0, -550.0, -1482.0, -303.0, -1366.0, -3503.0, -904.0, 1141.0, -39.0, -292.0, -2197.0, -1133.0, -991.0, 1500.0, 938.0, 175.0, -2289.0, -2956.0, 1503.0, -473.0, -3537.0, 579.0, 1801.0, -8.0, 3906.0, 1252.0, -2374.0, 2468.0, 328.0, 19.0, -966.0, 4092.0, 3666.0, -1612.0, -2036.0, 428.0, 3652.0, -3720.0, 799.0, 3885.0, -1986.0, -5341.0, 4170.0, 4158.0, -4893.0, 1876.0, -944.0, -1561.0, -4367.0, -4142.0, 3724.0, 104.0, -3847.0, 2505.0, -1396.0, -3305.0, 4560.0, -1067.0, -602.0, -4564.0, 4659.0, 3406.0, -4032.0, -5166.0, 4624.0, -3181.0, 3849.0, -1032.0, -3629.0, 4137.0, -4649.0, -1637.0, 2427.0, -3368.0, -1988.0, 2961.0, 1200.0, 3651.0, -4400.0, -118.0, 2371.0, 2744.0, -901.0, -2905.0, 164.0, -2908.0, 5428.0, -2020.0, 3138.0, 2840.0, 458.0, -3688.0, -1570.0, 871.0, -3376.0, -2214.0, -2088.0, 3165.0, 149.0, -935.0, 4375.0, -2317.0, -450.0, -110.0, -1917.0, 2699.0, -2919.0, 1182.0, 1019.0, -2338.0, -2663.0, -1225.0, -2992.0, -2615.0, -360.0, 3202.0, -1308.0, 3133.0, 4556.0, -2155.0, -181.0, -32.0, 4509.0, -2067.0, 756.0, -2035.0, 3824.0, -543.0, 1182.0, -1157.0, -1713.0, -62.0, 2455.0, 371.0, 1757.0, -732.0, -549.0, -1625.0, -3113.0, -3602.0, 1274.0, 2601.0, 238.0, -1334.0, -3238.0, -140.0, -34.0, -2226.0, 2102.0, -2128.0, -498.0, 1967.0, 2145.0, -436.0, -3828.0, -2078.0, -2776.0, -5887.0, 8353.0, -3007.0, 599.0, -347.0, 3225.0, 4789.0, -6008.0, -6065.0, 6240.0, -6062.0, 6350.0, -1056.0, -3327.0, -1500.0, -647.0, -5741.0, -6516.0, 6570.0, 5330.0, 4879.0, -1589.0, -5098.0, -3286.0, 4100.0, 4375.0, -4713.0, -488.0, -5114.0, 5754.0, 6048.0, -5157.0, 4884.0, 3237.0, -4924.0, 4343.0, 2646.0, 4075.0, -3374.0, -5318.0, -4318.0, 7373.0, -6663.0, 6121.0, 4655.0, 2214.0, -7437.0, 3090.0, 4545.0, -5265.0, 4674.0, 2500.0, 3346.0, -4150.0, 3603.0, 4341.0, 4250.0, -4758.0, 1035.0, -4853.0, 2905.0, -3692.0, 7636.0, 5634.0};

#endif // SELF_ATTN_Q_PROJ_BIAS_INTEGER_H
