#ifndef SELF_ATTN_V_PROJ_BIAS_H
#define SELF_ATTN_V_PROJ_BIAS_H

const float self_attn_v_proj_bias[768] = {0.019362336, 0.012047699, 0.045547765, -0.01703785, 0.0017217136, 0.06215453, 0.2306377, 0.10050715, 0.009139305, 0.015632061, 0.04773257, 0.0010445938, -0.033098534, -0.020258825, -0.014093187, -0.01970427, -0.021381633, 0.0032685879, -0.036073882, 0.21376681, -0.018951017, 0.03088035, 0.008937329, 0.0033529622, -0.016097251, 0.012395211, 0.059608113, -0.057630464, 0.016649205, 0.0792222, 0.0093260445, -0.012102462, 0.00878155, 0.008781101, 0.010108241, 0.020920025, -0.021557312, -0.08422852, -0.17270075, -0.004169905, 0.0038229632, 0.0026518179, -0.03515238, 0.053462103, -0.11695098, 0.00484899, -0.006364617, 0.01098093, -0.035133038, 0.007836944, -0.047404446, -0.22381334, -0.05483793, 0.009988411, 0.01712694, 0.041518264, 0.018257014, -0.011949714, 0.02646704, 0.009611884, 0.13816166, -0.014310748, -0.029012902, -0.009257423, -0.0002768102, -0.008031759, 0.015754672, 0.0046119806, -0.039871376, -0.0102941925, -0.023089236, 0.010964011, 0.0146648595, 0.00041007993, -0.038639918, 0.008022379, 0.010813784, 0.0010935699, 0.017418941, 0.021752829, 0.00367142, -0.01609403, -0.047952116, -0.0019600869, -0.035231903, 0.013856525, -0.004694786, -0.023943251, 0.036050983, -0.0073677413, 0.00062936934, 0.0028513512, -0.016617803, -0.010758512, -0.02731309, 0.040461563, 0.0006445154, -0.015901603, 0.018777963, -0.0006261496, 0.028715137, -0.0032424051, -0.008831124, -0.000653523, 0.0056324494, -0.009233301, -0.0051989453, 0.0061915163, -0.015520803, 0.011387405, -0.00704896, -0.017589359, 0.0006091063, -0.0048203277, -0.017669361, 0.008339831, 0.005301652, -0.009313203, 0.0027727254, -0.0043075825, 0.021646762, 0.005455586, -0.015251071, -0.013174045, 0.0011776948, -0.00080162566, -0.035653587, 0.02414582, -0.01014904, 0.0011717012, -0.022562256, 0.0005699699, -0.0054556783, -0.003455418, 0.0044174837, 0.037251316, 0.010524738, -0.0024297377, -0.03465281, -0.007913602, -0.02258181, -0.025852673, 0.06091777, 0.025727281, 0.010937542, 0.0064590746, 0.0023298073, -0.0064746146, 0.010364637, -0.018708639, -0.008021257, -0.05942354, -0.07976172, 0.008971838, 0.00062256446, -0.0067050755, 0.012542621, -0.0027574797, 0.0014545742, -0.02749364, -0.12573604, -0.03233228, -0.0013384394, 0.011012408, 0.014379241, -0.008056448, -0.017612945, -0.015761422, -0.014442393, -0.047038186, 0.002415147, -0.004229763, -0.004292225, 0.0015936687, -0.0042769536, 0.00079875544, 0.08566364, 0.0469752, 0.0062354174, -0.03828548, 0.0072077597, 0.026920646, -0.0064324043, 0.027174357, 0.004959861, 0.025407348, -0.015822312, -0.0612484, 0.020613322, 0.012529076, 0.029023807, -0.01943077, 0.00801646, 0.029018896, -0.005532844, -0.022969259, 0.006697073, -0.050751098, 0.010384126, -0.025582047, 0.0040872414, 0.012582712, 0.00017882956, 0.0010297464, -0.0030584007, 0.07627566, -0.017534606, 0.00088873605, 0.00064016395, 0.0019645311, 0.022388147, 0.017279463, -0.0036493402, -0.014339794, 0.011636505, -0.011798848, -0.008263174, -0.0150464885, -0.0031229309, 0.009830455, 0.018017892, 0.01861834, -0.010967534, -0.024230964, 0.011238438, -0.016447056, -0.0059782565, -0.01984317, -0.03247558, 0.0044118892, 0.010893703, -0.041549113, -0.0026728462, 0.02492182, 0.021621048, 0.0008309244, 0.020718858, -0.034733303, 0.010974982, -0.0019351083, -0.08144354, -0.0008444335, -0.02501858, -0.004773184, -1.152789e-05, 0.017900717, -0.006080926, 0.0018005904, 0.008145421, -0.011783699, -0.002377973, 0.01548065, -0.0135013675, 0.017379917, 0.007923039, -0.014349319, 0.0064247693, 0.0015993653, 0.009354743, 0.023592057, 0.07612732, -0.015275048, 0.008200083, -0.021970354, -0.004167457, -0.0050833034, -0.0025087215, 0.0039354796, 0.00615449, 0.042034023, 0.00030099088, 0.014492043, 0.01874021, -0.01639297, 0.020546438, 0.03083291, -0.013539294, -0.014967329, -0.017004345, -0.0032376111, 0.0010215732, 0.044625167, -0.02051647, 0.067740105, 0.008557496, 0.027926382, 0.26148352, 0.009756886, -0.027075978, 0.0013764951, -0.0025667709, -0.018675957, -0.024582772, 0.025123196, 0.013944527, -0.00034389592, 0.0047607603, -0.025800122, 0.00095969357, 0.01686694, 0.018448243, 0.03731887, 0.042626448, 0.022288041, 0.013067687, 0.013638544, -0.016586147, 0.019998753, -0.0032805186, 0.032070935, 0.014448157, -0.0012242618, -0.01166003, 0.0025195917, -0.1550227, 0.0089471545, -0.0019682862, 0.060400393, 0.052404623, 0.005016997, 0.049745876, 0.02793488, -0.01453211, 0.015013447, 0.119934335, -0.09055722, -0.009747221, 0.022854911, -0.109472, -0.062208176, -0.024495099, -0.009356174, -0.05570591, 0.35010862, 0.021351617, 0.032396093, -0.058525667, -0.0036401872, -0.0032538984, -0.022310415, -0.08929128, 0.07425136, 0.18970296, -0.029129293, 0.031989627, 0.04865487, 0.05479953, -0.059115313, -0.030060252, -0.041932307, -0.05610887, 0.03063195, -0.046816926, 0.04298778, 0.050140362, 0.026960244, 0.00738162, -0.18696123, -0.020425513, -0.0145193115, -0.0034037353, -0.05334016, 0.013915779, 0.02921317, -0.08652978, 0.036605146, -0.09703083, -0.08222968, -0.011113696, -0.021434108, 0.016463632, -0.0025996007, -0.044673182, 0.029538471, -0.011267508, 0.010815411, 0.015058342, 0.02081993, 0.008834444, -0.029034866, -0.0147493705, 0.043707184, -0.017384864, 0.047433477, -0.0053703794, 0.051320344, 0.11126307, 0.012673858, -0.0573566, 0.031660665, 0.05896428, 0.0059712743, -0.0043973885, -0.03077578, 0.11866795, 0.023031892, -0.025132434, -0.013857406, -0.008502542, -0.011269865, 0.0792003, -0.030517869, -0.030732192, 0.04527654, 0.020014677, -0.0326036, 0.027519165, -0.006488707, 0.05175287, 0.037200626, -0.021149157, -0.040227067, 0.0005428865, 0.028945705, -0.024100432, 0.0089714825, 0.007049215, -0.027049083, -0.05758947, 0.110171646, 0.07871123, 0.013819595, -0.028387174, 0.03284366, 0.04370348, -0.025937961, -0.010115327, 0.019532718, -0.028792204, 0.01821421, -0.0041762027, -0.0059911124, 0.085826285, -0.031606466, -0.13113965, -0.041675575, -0.056688976, 0.04968738, 0.005394743, -0.025020275, -0.017204056, -0.013103491, -0.083795555, 0.02281375, -0.029564455, -0.0058821943, -0.021643415, 0.04033142, 0.004723357, 0.033382934, 0.029786173, -0.011353622, -0.002854214, 0.0044202553, 0.012048637, 0.016471965, -0.021283573, 0.02904216, 0.0024134845, 0.0072280164, -0.0038771012, 0.026395395, -0.021975946, -0.013021738, 0.034383073, -0.051004346, 0.052255165, 0.020978479, 0.0026884587, 0.0012675271, 0.028762368, -0.01395734, 0.0066203405, -0.0021649306, -0.0046801693, 0.007846535, -0.010112291, -0.019283077, -0.122556105, -0.011130518, 0.031821176, -0.009934319, 0.0073790755, -0.03525601, 0.0027858687, 0.05789672, -0.014468177, -0.021947263, -0.024270691, -0.032032743, -0.010040011, -0.052094415, -0.012342028, 0.0061308374, 0.015240447, 0.004053705, -0.0016058639, 0.009225138, 0.05853556, -0.0009021382, -0.015525497, 0.017254917, -0.00078705547, -0.019282686, -0.04212333, 0.0055083516, 0.0067147133, 0.026605703, -0.027328258, -0.0115966955, 0.028231993, -0.002150738, -0.013580169, -0.06450575, -0.004783242, 0.0022761866, -0.007013146, 0.054225296, 0.000894368, 0.012312524, 0.0073691565, 0.020639243, 0.00548829, 0.010050047, 0.008763178, 0.00034586873, 0.028604873, -0.0081516765, -0.022925168, 0.0027052294, 0.013566628, 0.0037799296, -0.007574298, -0.035664625, 0.011134086, -0.009836489, -0.017842988, -0.020903548, 0.011808826, -0.021487456, -0.02471416, 0.02170898, 0.006640046, 0.013735769, -0.0018016918, 0.008337549, 0.014644798, -0.013113297, 0.01887626, 0.0011948087, -0.0121483235, -0.0107470555, 0.024669362, -0.011737601, -0.021250509, -0.026529439, 0.055732794, -0.007932588, -0.013299742, -0.13413504, 0.009471688, -0.040808614, 0.025904717, 0.005976367, 0.028067421, 0.0010455326, -0.019962491, -0.0015179559, 0.020651473, 0.022524647, 0.0015133503, 0.01218916, 0.0014478043, 0.0034043447, 0.0494862, -0.025254617, -0.012339061, 0.033494405, -0.060178287, 0.012378253, 0.027500888, 0.03876944, -0.4610451, -0.0012430096, 0.008275244, -0.0029442639, -0.012908882, 0.099992216, -0.0052054618, -0.041401237, 0.0066140075, 0.25703898, 0.016922204, -0.021339761, 0.0020471772, -0.0013539173, -0.011140752, -0.02389728, 0.0060563474, -0.0121768, -0.0018456655, -0.005595865, -0.01324743, 0.016471567, -0.0070307166, -0.00042335445, -0.0031730654, -0.009897908, 0.0057874527, -0.004653468, -0.009465795, -0.012568859, 0.00088323443, -0.016317874, 0.0037223797, 0.07247318, 0.010315397, -0.040586106, 0.0060584154, 0.029050082, 0.0005613605, -0.00888874, 0.028912082, 0.08043555, 0.007466319, 0.0152524365, 0.036769073, -0.0007809549, -0.24982867, -0.014195365, -0.001531971, -0.07294615, -0.00857449, -0.0060902354, 0.036728807, -0.013163251, -0.065498434, -0.004657365, -0.039143823, -0.27378017, 0.0035032218, -0.006465802, 0.021040985, 0.030742614, -0.042377803, -0.009769537, 0.009607618, 0.025198255, -0.027037175, -0.00820668, 0.0128499055, 0.03101591, 0.0026799452, 0.04519474, -0.003738797, 0.009003154, 0.009047245, 0.0006689065, 0.03362372, 0.0032907731, -0.022813635, -0.0038697429, -0.058498666, 0.09111251, -0.028272843, 0.007111882, 0.011622284, -0.0070248265, -0.0037701316, -0.016607452, -0.01894805, 0.006774672, -0.012828511, 0.020624302, -0.0027157462, -0.085672535, -0.037870422, -0.062627085, 0.012197214, -0.0118219, 0.13197392, 0.022135478, -0.047935702, 0.06427249, -0.060961254, -0.035615146, -0.0044453642, -0.011011822, -0.06990188, -0.030208955, -0.046933345, 0.02383367, 0.015728451, -0.007173462, -0.032018177, 0.039982896, 0.0139207095, -0.0040834392, -0.054973964, 0.01549934, -0.0012044839, -0.018103974, -0.07294916, -0.0032117143, 0.00018700703, 0.0045317532, 0.021508256, 0.0030525024, 0.00057080865, -0.0072133224, 0.033548333, 0.011947096, -0.0056614233, -0.022294853, 0.002184183, -0.0082936315, 0.004835828, 0.008234269, -0.037986588, -0.004376998, 0.0054964474, -0.0039092163, 0.00033982986, -0.0038346935, -0.0016077476, -0.022139378, -0.26739052, -0.050153024, -0.008758578, -0.005245405, -0.01661548, -0.0017192012, -0.02253177, 0.27594593, -0.36610305, 0.07223438, 0.0015645567, 0.0068272795, -0.16646047, -0.009643664, 0.20847027, -0.012388163, 0.005095925, -0.06967876, -0.005098937, 0.12924424, -0.061588954, -0.011805476, -0.008418305, -0.02747437, -0.14494035, 0.00925285, 0.0056777685, -0.0046454594, -0.0001627688, -0.006587543, 0.0047275433, -0.17346768, 0.00053671224, 0.021624675, 0.0010589192, -0.008615877, -0.07529688, 0.014978672, 0.0010654983, -0.041414157, 0.006518218, 0.0093744695};

#endif // SELF_ATTN_V_PROJ_BIAS_H
