#ifndef SELF_ATTN_K_PROJ_BIAS_H
#define SELF_ATTN_K_PROJ_BIAS_H

const float self_attn_k_proj_bias[768] = {-0.0017590654, 0.0004976562, 0.0018434001, 0.00010211329, 0.0015608902, -0.0019294521, -0.000644915, 6.204085e-05, 0.00010970392, -0.0021931892, 0.0018147682, -0.00083798065, -0.0006712776, 0.0008622178, 6.674163e-06, 0.00047378094, -0.0012937741, 0.0012533821, 0.00017536522, -0.00038865075, -0.00058609375, -9.794915e-05, 0.00062823365, -0.0006870517, 0.0019460486, -0.00030974112, -0.000415527, -0.0010875833, 0.0012614273, -0.00052881247, 0.0004370465, 0.0018915274, -0.0005270555, 0.000203375, 0.0010228192, -0.0007378116, 1.1001967e-05, -0.00086153945, 0.001103464, -0.00044140755, 0.00010438757, -0.0012337789, -0.0018774029, -0.00019821248, 0.00086665986, -0.00094919873, -0.00028311944, -0.0004509513, 0.00040177704, 0.001136714, 0.00029734167, -0.000151423, -0.0019540743, -0.00082842074, 0.0023368567, 0.00057600497, 0.00023116554, 0.00017426616, 0.00044603006, -0.001203255, -0.0008482024, -0.00091308163, 0.00033768246, -0.00038112045, -0.00015676444, 0.00052647287, -0.00045006422, -0.00065881986, -0.0010580837, 2.548555e-05, 0.00016915577, -0.00010796997, -0.0005017132, 0.0004089397, 0.0002972229, 0.0008212596, 0.00030405476, 0.0012233906, -0.0005304794, -0.00021048408, 0.00031491113, 0.0006553513, -0.00019141099, -0.0003713725, -0.00021533816, -0.00022078927, -0.00090246426, 0.00024127349, 0.00010838646, 0.00021634964, 0.00038804434, 0.00034105268, -2.539417e-05, 0.00027070317, -0.0005817646, 0.0007891636, -0.00019345027, 1.2444147e-05, -7.836443e-05, -0.00020305059, 0.00033412164, -9.311458e-05, -1.1752764e-05, -0.00027040363, -0.0002864247, -0.0003115266, -0.00026433502, 0.00013042554, -0.0005203677, -0.0005154059, -0.00026538936, -0.00028275303, -0.00094889704, 0.0011142173, 0.00044739502, 1.1095104e-06, -0.00019934755, 0.00038322032, -0.0008105622, 0.0007296593, -0.00045444892, -0.00060572184, 0.00031521262, 0.0001717947, -0.000110198176, -0.00024773763, -5.801738e-05, -0.00010813285, 0.00011903991, 0.00026264854, 7.426378e-05, 0.0001229155, 0.00026550842, -6.879584e-05, 5.4858025e-05, 4.026946e-05, -6.2856074e-05, -5.5231692e-05, 2.3855668e-05, 0.0003797296, -3.330319e-05, 9.041893e-05, 8.908681e-05, -8.6833425e-05, -3.0841555e-05, 0.00017636243, 1.3569729e-06, 1.2219056e-05, -6.155905e-05, -9.786901e-05, 0.00021499976, 2.387882e-05, -0.00028556003, -0.00035943187, -0.00030565038, -0.0002293293, 3.7409394e-05, 7.507651e-05, 1.3468802e-05, 0.0001829395, 4.9092036e-05, 7.92719e-06, -0.00026689234, 0.0005781014, 0.0002558322, 0.00012530452, 0.00039061945, -0.0001672291, 3.9756316e-05, -0.0006396132, -0.00016457158, 0.00033055697, -5.9623813e-05, -0.00030751622, -0.00019072962, -0.0003709883, -2.4771725e-05, -7.643876e-05, 7.162301e-05, 0.00015937925, 0.000102169026, 6.878148e-05, -6.254653e-05, 0.0004178396, 4.6591096e-05, -1.0631453e-07, -0.00021752325, 0.00010953226, -0.00011379786, 0.00016690361, -3.583796e-05, -5.0765164e-05, 0.00027229657, 4.6916542e-05, 0.00012792803, -0.00046070095, 7.169678e-05, 5.4215416e-05, -0.0003369802, -4.5637105e-05, 1.862125e-05, -0.00018676947, -0.00017115446, 9.42182e-05, -0.00034679117, -0.00010254235, 2.9038505e-05, 0.00023383608, -0.00016604301, -0.0002357934, 2.21619e-05, -0.0002916576, -0.00016342143, 8.778386e-05, 7.7736404e-05, 0.0004624833, 0.00038181982, 8.898636e-05, 4.9336926e-05, 0.0005706741, 7.508326e-05, 8.290482e-05, -3.871479e-05, 1.4920069e-07, -0.00028910785, -0.00017068071, 0.00014470548, 3.2916658e-05, -0.000106718006, -0.0003117125, -0.00023346345, -0.00054867886, -0.00034105318, -6.605847e-05, -3.3029122e-05, -2.4710556e-05, 0.000118450065, -1.4722683e-05, -0.00018006116, 0.00025599892, -0.00043412056, -0.0002717385, 0.000114892966, -0.00021806212, 0.00026217496, 3.1102754e-05, -0.00016219752, -0.00036540997, -0.0001516689, -0.00038085025, 6.486664e-05, -3.1363892e-05, -0.00023682916, -0.00026669857, 2.6413285e-05, 0.00034788487, -6.892175e-05, 9.9962555e-05, -4.0705196e-05, -5.3617685e-05, -0.00025757018, 3.4270593e-05, 0.0006463879, -4.3060943e-05, -0.00014311058, -8.4074025e-05, -4.6128054e-05, -9.903418e-05, 0.00032913382, -0.00017324157, -0.00013790338, -0.00022871332, 0.00029920353, 0.00016740491, 0.00021661863, 0.0007122506, -8.575494e-05, -2.4186342e-05, 4.3858538e-05, -3.9995262e-05, -0.00013090229, -0.00028084798, 4.2079046e-05, 1.2659738e-05, 0.00012820764, -2.7513028e-05, -9.354828e-05, 6.799365e-05, 0.00010687861, -0.00014586208, -9.0182104e-05, -0.00037731693, 0.00056187925, 0.00011390979, 0.00032374874, 9.292948e-05, -0.00017368695, -0.00028750265, -4.6807687e-05, 0.00025487284, -0.00035139176, -8.734127e-05, -0.00021688432, -2.7838034e-05, -0.00032250164, 4.5661047e-05, 0.00022012624, -9.0715715e-05, -3.8097747e-05, 7.747733e-05, 0.0002558239, -6.4840475e-05, -0.0003584761, -0.00025436218, -0.00065238174, -0.00026528453, -0.00027263453, 0.0001464821, 9.313709e-05, -0.00043049807, 0.00083720987, 0.00045748998, -0.0010279454, -0.00034448013, -0.00057824247, 0.0003553001, -0.0010179927, 0.00079830433, 0.00013492028, -0.00079413806, 0.00047615822, 0.0001743692, -8.6746346e-05, -3.745248e-05, -0.00093390676, 0.00093387184, 0.0001226489, 0.00095685816, -0.0005726034, -2.7341119e-05, -0.0010721418, -0.0007082965, -0.00015410862, -0.0011334649, -0.00033136117, 3.2069776e-05, -0.0002145962, 0.00027868163, -4.2269283e-05, 0.00025258222, 0.00014232878, -0.00075704255, 0.000875116, 0.00017298141, 0.0018760299, -0.0010401662, 0.00027486446, -0.0008923038, 0.00049607735, -0.0007146846, -0.00031547237, 0.0001634096, 0.001129233, -0.00020482615, -0.0003976103, -0.00048085736, -0.0005357196, -0.0004910256, -0.0010125566, -0.00041550488, 0.00076232443, -0.00019324906, -0.00010806496, -0.00013320753, 0.0005381353, -0.0004104036, -0.0005709113, -0.00038963492, 0.00071448775, -0.0002943067, -0.00049221324, -0.0004321822, 0.00024463976, 0.0011237449, 0.0011519655, -4.9798975e-05, 0.0004887757, -0.0003672028, 0.0016113727, 0.0014073654, -0.0007311712, 0.00014021985, -0.00068574445, 0.00047533185, 0.0013612338, -0.0012085584, 0.0036912598, -0.0007510856, 0.0010264132, -0.0001430168, -0.00103767, -0.0009638742, 0.0008716048, -0.0015015842, -0.0013056736, 0.0022147985, 0.0015331178, 0.00027525495, -0.00015793378, 0.0019634124, 5.9132685e-07, 0.00031815935, 7.2280876e-05, 0.00095131865, 8.9106805e-05, -0.001287754, -0.0003284656, -0.00038776448, -0.00033843768, -0.00033416998, -0.00047130973, 8.946647e-05, -0.0014312251, -0.00043995958, 0.0016654283, 0.00032558295, -9.195262e-05, 0.00025866245, -0.00013810604, 0.00077315234, -0.00080434984, -0.00085620437, -0.00046300804, -0.00054395554, -0.0004300932, -0.00068130804, -0.00025535238, -0.00209916, -0.0010414314, -0.00023321324, 0.00015932546, -0.00019441555, -0.00047744412, 0.00093607034, -0.0012601682, 0.0025247366, 4.6180144e-06, 4.0645842e-05, -0.0026461799, -0.00010540099, 0.0008579774, 0.00025364987, -0.00020983601, -0.00020217511, 8.8417044e-05, -0.0001830189, 0.00020099446, 0.00024948883, -0.00015406484, 1.925782e-05, -6.90118e-05, 0.0002508222, -0.00045631532, -0.00018672527, 0.00037099564, 0.0004959618, 5.8349586e-05, -0.00025126198, -1.6884836e-06, -7.086888e-05, -0.00028248224, 0.00046077056, 0.00030141202, 0.00023316668, 0.00027584337, 0.00014757081, -0.00089190423, 0.00058117014, -0.00022735393, 0.0007204437, -0.00048378904, 0.00040176368, 0.00061732327, 9.186313e-05, 5.2007845e-06, -4.647061e-05, -0.0004514793, 0.0005883427, -0.0002633013, 0.00048563327, -0.00019659197, 0.00021641832, 0.0003044729, 0.0012619668, -0.00011916142, 0.00033334052, 0.00018317226, 0.0001814264, 6.508311e-06, 0.0005881544, -0.0003074842, 0.0008042714, -0.00016010023, 0.00040136336, 6.0921797e-05, -0.0001450813, -0.00023338715, 0.00047183517, 0.00023713452, -0.00017301178, 0.00021092106, -0.00029472302, -6.623674e-05, 0.00045301774, -0.00026819532, 0.00019888149, -0.000323253, -0.00011523899, -0.00015622274, -3.2854674e-05, -0.00018984756, 2.1612594e-05, -4.225655e-06, 0.00020989751, -0.0001433702, 0.00017337991, 0.00011645208, 0.0002982537, -5.1525105e-05, -0.00011522993, -0.00021892754, 0.00038252276, -0.00012501433, -0.0001955798, 7.5809294e-05, 0.00017637985, 0.00039404375, -0.00015900846, 0.00035763418, 0.00018604867, -0.000254187, -1.2503351e-06, 0.00029132358, -4.9463648e-05, -0.00021090676, 0.0004979725, 0.00016737689, -9.489826e-05, 8.661299e-05, 0.00034279277, 0.0005616581, 0.00016719493, -8.941899e-05, -0.00016637347, -0.00023166665, 0.00026882306, -9.563758e-05, 0.0002414244, 0.00023324318, -0.00030513373, -0.00027274014, -0.00026372692, -0.00013983934, -3.5352983e-05, -0.000582919, -0.000117535004, -8.349037e-05, 0.0002668884, 0.00020171373, 3.2061726e-05, -7.78691e-06, 0.000277568, 0.00028707113, -5.4434444e-05, -0.00010806063, -6.711783e-05, -0.0007977316, -0.0013689304, 0.0005266747, -0.0018418533, 0.00021683911, -0.003589, -0.0009982517, 0.00039101462, -8.952498e-05, 8.91038e-05, 0.0006019972, 0.00068691425, -0.0008090043, 0.00010257058, -0.00020197769, -0.00089670514, -1.2680901e-05, 0.00033729212, -0.0034325232, 0.00017669641, -0.005370371, -0.00077128777, -0.0012190994, -0.0028807803, -0.002152968, 0.00056981185, 0.00034888618, 0.0012128745, 0.0011080067, -0.0012770598, 0.00029568863, -0.0020846035, 0.006216307, -0.0013401888, -0.00071541814, 0.0004180594, -0.008348111, 0.00031903796, 0.00037143, 0.00064313004, 0.00023718904, -0.0007243933, -0.00096755626, 0.0007110024, 0.0014068104, -0.0013459689, 0.00047478158, 0.0010140889, 0.0011218387, 6.417709e-05, 0.00026292595, 0.00018941544, -0.00073134055, 0.00020545624, -0.00058904826, 0.0008510294, -0.0026551862, 0.00023456164, -0.0007195176, 0.0025153025, 0.0014518733, 0.0013684754, 0.00010110723, 0.00059412303, -6.833035e-06, 0.0002317178, 0.00026468234, 0.000121549805, -0.00026633547, 0.00033599779, -6.7239795e-05, -0.00039411391, 0.00017373862, 0.0003134233, 8.351224e-06, 0.00027180687, -0.00020002492, 0.00021645374, 0.0001327994, 9.926354e-05, 5.5054334e-06, 0.000104885105, -9.8980556e-05, 0.0002689822, 8.899196e-05, 0.00021788338, -2.8646578e-05, 0.00015082839, -5.2082283e-05, 0.00031453482, -2.669142e-05, 8.839959e-05, 0.00014972698, 9.604814e-05, 5.9577553e-05, -0.00033843558, -0.00037477384, -0.0005924191, -0.000132697, -8.023662e-05, 0.0003605533, 0.0002589167, -0.0001712352, -7.1010574e-05, 0.0005754326, 1.5846232e-05, -7.3085844e-06, 0.00015060767, -0.00013623743, 2.0522159e-05, -6.1283106e-05, -0.0003086576, 0.000109911896, 0.0003088408, 0.0003862004, 0.00018200361, -0.00013376115, -0.00017399732, -1.8816938e-05, 0.00022436405, 0.00011817327, 0.00033310172, 0.000112778594, -0.0002595766, -5.935794e-05, 0.0001475518, -0.0001505482, 0.00016430035, -0.0007425802, -0.00019551718, 0.00079656375, 0.00018681014, 0.00034450882, -0.0005314456, -0.0008454978, -0.0006715176, -0.00028504492, 0.0005841713, -0.0006969797, -0.0005183786, -0.00015385791, 0.00027639195, -0.0012304011, 0.00034935726, 0.0008438497, 0.00026744307, -0.0012727943, -7.337269e-05, -0.0002983181, -0.0002487078, -0.00061646296, 0.0010266044, 0.0021146627, -0.0024387725, -0.0016080565, 0.0018271592, 0.00021798613, 0.0012056924, -4.693953e-05, 5.347396e-05, 9.834532e-05, -0.00089685095, 0.0005420298, -0.00092333544, 0.00011330101, -0.00040522002, 7.271855e-05, 0.00024133983, -1.5460131e-05, 0.0004521675, -0.0012078339, -0.0009524859, -0.0007618179, -0.00023694195, -0.0004010422, 0.000114258335, -0.0008998383, -0.00043177206, 0.0007682487, 0.0008702036, -0.0003963285, -0.0021913815, -5.0671955e-05, -0.00036104617, -0.000137534, 0.00029753702, 0.0003624624, -2.0155635e-06, 0.00096843526, -0.00037686207, 0.0007155477, 0.00025077414};

#endif // SELF_ATTN_K_PROJ_BIAS_H
