#ifndef SELF_ATTN_OUT_PROJ_BIAS_INTEGER_H
#define SELF_ATTN_OUT_PROJ_BIAS_INTEGER_H

const float self_attn_out_proj_bias_integer[768] = {-2995.0, -6158.0, -220.0, 3054.0, -226.0, -21.0, -775.0, 1140.0, 2431.0, 1810.0, -903.0, 2829.0, -751.0, 2032.0, -1026.0, 1057.0, -1899.0, 755.0, 2746.0, 2430.0, 99.0, 1416.0, -948.0, 80.0, -2580.0, 2222.0, -1145.0, 3878.0, 45.0, 745.0, 102.0, -1888.0, 2332.0, 1619.0, -3057.0, -3239.0, -4189.0, 2271.0, 284.0, 3439.0, -4244.0, 636.0, 375.0, -68.0, -6479.0, 1567.0, -25.0, 303.0, -1906.0, -1294.0, 2914.0, -2308.0, 1308.0, 2951.0, 1347.0, 1505.0, 678.0, 2618.0, 697.0, 3827.0, 1661.0, 1469.0, -5501.0, -970.0, -1665.0, -849.0, -1027.0, 201.0, 1347.0, -2624.0, 421.0, 1500.0, -6755.0, -1722.0, 3295.0, 686.0, 2436.0, 2.0, -853.0, 441.0, -430.0, 3664.0, 798.0, -1082.0, 1242.0, 2772.0, 1947.0, 1955.0, 1862.0, 1470.0, 2693.0, -2725.0, -4325.0, -251.0, -2520.0, 3514.0, 4648.0, 595.0, -5817.0, -3209.0, 4706.0, -428.0, 2191.0, 6679.0, -1663.0, -1669.0, 1964.0, -103.0, -11861.0, 578.0, 1268.0, 666.0, 5247.0, 1112.0, 813.0, 654.0, -129.0, 27.0, 561.0, -2109.0, 1401.0, -1434.0, -1843.0, -3849.0, 1257.0, 1903.0, -1958.0, -2857.0, 1465.0, -5696.0, -2992.0, -4508.0, -7435.0, 2056.0, -1641.0, 1204.0, -3206.0, -4455.0, 3468.0, 5068.0, -2270.0, -4769.0, -5931.0, -565.0, 1294.0, 1976.0, -743.0, 1348.0, -2122.0, 1184.0, 2849.0, -1976.0, -1531.0, -4364.0, -2791.0, -5557.0, 1835.0, -704.0, -2191.0, 2371.0, 600.0, 1057.0, -4801.0, 578.0, -1654.0, -3139.0, 1194.0, -2763.0, 816.0, 1035.0, 758.0, -5976.0, -4912.0, 821.0, 725.0, -1954.0, -433.0, -2042.0, -1366.0, -3314.0, 1675.0, -333.0, 4160.0, 1322.0, -1146.0, 1066.0, -5836.0, -683.0, 1918.0, 3364.0, 280.0, -2838.0, -1420.0, 3362.0, -460.0, 588.0, 5143.0, -787.0, -2673.0, -3713.0, -2785.0, -3359.0, 1735.0, 2566.0, -53.0, 1166.0, -1180.0, -3743.0, -3935.0, -4842.0, -2571.0, 2119.0, -1032.0, -648.0, -63.0, 1402.0, 1318.0, -878.0, -1183.0, -402.0, -612.0, -2668.0, -4683.0, 3720.0, 2387.0, -2171.0, 250.0, 2209.0, -757.0, -2107.0, -5780.0, -595.0, -1908.0, 1418.0, 4740.0, 1584.0, -1329.0, -303.0, -123.0, -899.0, -1416.0, -2840.0, -345.0, 1933.0, 6.0, 4383.0, -4370.0, -1400.0, 3910.0, -142.0, -6638.0, -3927.0, 4382.0, 1525.0, 373.0, 2184.0, 1038.0, -3739.0, -2910.0, -5478.0, 727.0, 1193.0, -1081.0, 1122.0, 5468.0, 828.0, 5645.0, -1065.0, 14.0, 370.0, 1214.0, -701.0, 381.0, 29.0, 1030.0, -2110.0, -4314.0, 2937.0, 3537.0, -1852.0, 1072.0, 1979.0, -2159.0, 1848.0, 2106.0, 1492.0, 2050.0, 3561.0, -1580.0, -3438.0, 3297.0, 1075.0, 2461.0, -4229.0, 1375.0, 1822.0, 796.0, 3377.0, -1104.0, -2765.0, -743.0, -1988.0, 1098.0, 2358.0, -4093.0, -38.0, 1748.0, 1929.0, 4090.0, 507.0, -2624.0, -869.0, -5370.0, -4486.0, 3227.0, -3337.0, 2519.0, -3809.0, 4430.0, -2788.0, 1975.0, 654.0, -1506.0, -7833.0, -3251.0, 1729.0, 539.0, -2471.0, -1226.0, -2097.0, 1166.0, -293.0, -1341.0, -28.0, -1140.0, 595.0, 1749.0, -3170.0, 3523.0, 671.0, -2162.0, -123.0, -1701.0, -1637.0, 1467.0, 1200.0, 4692.0, -1467.0, -1585.0, 1178.0, -1632.0, -2641.0, -406.0, -866.0, -2063.0, -318.0, -1082.0, 557.0, -428.0, 2423.0, 1088.0, 102.0, -407.0, -2256.0, 2552.0, -1115.0, -1021.0, 3604.0, -386.0, -850.0, -3684.0, -1347.0, 952.0, 1652.0, -897.0, 819.0, 956.0, -719.0, -372.0, -312.0, 1229.0, -1850.0, 270.0, 977.0, 3754.0, 706.0, -3566.0, 714.0, -1380.0, -2288.0, 469.0, 1230.0, 2328.0, 131.0, -2373.0, -690.0, -618.0, -127.0, -711.0, -4847.0, -1226.0, 4377.0, 1896.0, -768.0, -3846.0, -2335.0, -4694.0, 1786.0, 1733.0, 1006.0, 794.0, -130.0, -1330.0, 3382.0, 174.0, -860.0, -245.0, -1551.0, 574.0, 627.0, 1507.0, -2592.0, -1848.0, 787.0, -450.0, 3974.0, -104.0, -986.0, 1592.0, -586.0, 2213.0, 821.0, 2437.0, -460.0, -37.0, -4170.0, 59.0, -3223.0, -258.0, 4121.0, -4366.0, -724.0, -2592.0, 1359.0, 813.0, 1262.0, -1481.0, -2693.0, -297.0, -1046.0, 4858.0, 1912.0, 127.0, 1908.0, -2422.0, -2069.0, -1109.0, 2639.0, -388.0, -175.0, -2004.0, -517.0, -3469.0, -3278.0, 633.0, -8264.0, -735.0, 1885.0, 3060.0, -2124.0, 3645.0, -2867.0, -2718.0, 1959.0, -2482.0, -2780.0, 425.0, 2514.0, -7343.0, 1575.0, 2396.0, 1904.0, 1417.0, -2167.0, 1041.0, -1311.0, 4285.0, -3430.0, -1184.0, -2787.0, 1525.0, 2541.0, -2428.0, -3864.0, -634.0, 2005.0, -522.0, 1178.0, -1938.0, -188.0, -1412.0, 3983.0, -1259.0, 2930.0, -4359.0, 1287.0, -164.0, 1363.0, 4853.0, -809.0, 1122.0, 4354.0, -1091.0, -3769.0, 5155.0, -794.0, -680.0, 1071.0, 320.0, -792.0, -1722.0, -3068.0, -401.0, 146.0, -2427.0, -873.0, -500.0, -1659.0, -32.0, -1990.0, 374.0, -1627.0, 3231.0, -4589.0, 3919.0, -2815.0, 2573.0, 5257.0, 349.0, 2808.0, 3098.0, 2055.0, 358.0, -533.0, -4536.0, 2722.0, 81.0, -3496.0, 752.0, 2642.0, 428.0, -180.0, 1288.0, -2313.0, -897.0, 2134.0, 4088.0, 163.0, -4444.0, -165.0, 2634.0, -2558.0, -803.0, 393.0, 1559.0, 551.0, 4818.0, 1158.0, 1816.0, 3932.0, 1062.0, -1205.0, -2771.0, 246.0, 866.0, -336.0, -1322.0, 192.0, -959.0, 2172.0, 2067.0, -2484.0, 397.0, -439.0, 2473.0, 4353.0, 2272.0, 1733.0, 1601.0, 1418.0, -969.0, 3071.0, 635.0, 1608.0, 503.0, 765.0, 2119.0, 746.0, -467.0, -3210.0, -1032.0, -3061.0, 1392.0, -9055.0, -2588.0, -3243.0, 1882.0, -2218.0, -4076.0, 1875.0, -2968.0, 1878.0, -4133.0, 1891.0, 1453.0, 1280.0, -1755.0, 1314.0, -3771.0, 2461.0, 1104.0, -2537.0, 4717.0, -1734.0, 815.0, -2574.0, -1646.0, 1068.0, 3996.0, -3306.0, -1757.0, -1488.0, -1521.0, -717.0, 402.0, 110.0, 2681.0, -1387.0, 2840.0, -1247.0, 1640.0, 2108.0, 653.0, 4632.0, 1145.0, -174.0, -2797.0, 2301.0, -106.0, -502.0, -887.0, 6295.0, 1171.0, -2723.0, 2517.0, 598.0, 2949.0, 6736.0, 3073.0, 907.0, -3448.0, 6033.0, 1277.0, -746.0, 52.0, 1213.0, 5766.0, 1954.0, 2671.0, 1408.0, -3357.0, 3119.0, 4865.0, 496.0, 859.0, 1390.0, 3071.0, 5115.0, 1290.0, -1394.0, 6.0, 2460.0, 3115.0, 903.0, -396.0, -2466.0, 2638.0, -3694.0, -1096.0, -41.0, -3333.0, 3939.0, -197.0, 2530.0, 2131.0, 3866.0, -2766.0, -1483.0, 2210.0, 121.0, 427.0, 3674.0, -5239.0, -2361.0, -3027.0, -1046.0, 932.0, -5606.0, 623.0, -3181.0, 1205.0, 1123.0, 7225.0, -1172.0, 4404.0, -9308.0, -2356.0, -6004.0, -2490.0, 4990.0, -890.0, -1454.0, 4316.0, -1277.0, 1771.0, 5459.0, 6261.0, 3655.0, 543.0, 2698.0, 2508.0, 755.0, -503.0, 1687.0, 1263.0, -1546.0, 4809.0, 3529.0, -2123.0, -886.0, -994.0, 5356.0, 306.0, -982.0, -5034.0, 1078.0, 988.0, -1702.0, -1603.0, 1082.0, 257.0, 1294.0, 1972.0, 2231.0, -1019.0, -2506.0, 192.0, 1471.0, -6098.0, -2128.0, 2440.0, -1098.0, 5402.0, 1062.0, 1886.0, -220.0, -2614.0, 1064.0};

#endif // SELF_ATTN_OUT_PROJ_BIAS_INTEGER_H
