#ifndef SELF_ATTN_Q_PROJ_BIAS_H
#define SELF_ATTN_Q_PROJ_BIAS_H

const float self_attn_q_proj_bias[768] = {0.22133401, 0.04057872, -0.34900427, 0.4579242, 0.674767, -0.2736615, -0.0945686, 0.24326912, -0.044504326, 0.37694013, 0.5150425, 0.5469663, 0.14531018, -0.16100827, 0.5377235, -0.27360758, -0.20375203, 0.0940285, 0.019875553, -0.0017308706, -0.47164726, 0.09958085, -0.040360793, -0.105156794, -0.59695125, 0.16916753, 0.12209692, -0.37157685, -0.0503595, 0.3215058, 0.056341298, -0.3308672, -0.25937286, -0.3628097, 0.091079175, -0.17545368, 0.57216215, 0.07404772, 0.100854695, 0.17887823, -0.06321627, 0.12459809, 0.08849495, -0.043524932, 0.31379506, -0.06884534, 0.25043902, 0.20052521, 0.13262205, -0.37869734, 0.25577986, 0.11041723, -0.40027002, 0.074055955, -0.51812947, -0.2749436, 0.04459005, 0.12323794, -0.3895964, 0.014514333, 0.49843097, -0.10923761, -0.45377758, 0.16741513, 0.18755487, -0.38581967, -0.0055435384, -0.3525679, 0.2525904, 0.090958506, 0.26450002, -0.0816473, 0.2666343, 0.082883395, 0.48152164, -0.60797304, 0.07030584, -0.6374824, 0.107810766, 0.47646546, -0.049588837, -0.2973111, 0.07738872, -0.32688984, -0.13265969, -0.022423344, 0.17500538, -0.009593435, -0.22584143, 0.18493505, 0.16072261, 0.08130399, 0.0968291, 0.079885796, 0.007156766, -0.3810881, -0.17368388, 0.10660995, -0.04852882, -0.400284, -0.17082857, 0.10001512, 0.027094454, 0.3775276, -0.3305107, 0.013067402, -0.15960576, -0.06175153, -0.4653548, -0.007885857, 0.56083965, -0.04699119, -0.4910795, -0.39310792, -0.042466704, 0.0081402995, -0.5351704, 0.2880465, 0.11878511, -0.08101853, 0.101327345, -0.14360562, -0.084536664, -0.13399136, -0.33952126, -0.11126369, 0.03415245, -0.13928369, 0.22985117, -0.28695, -0.48730657, -0.11950652, -0.24989767, -0.02818327, -0.11642344, -0.2248459, 0.20813675, -0.15866114, -0.19729114, 0.22351947, 0.350538, 0.007530261, -0.15836436, -0.08701582, 0.32054272, -0.35865852, -0.39234695, -0.0570778, 0.19463803, 0.02155184, 0.014673154, -0.056233335, 0.14325254, 0.092496224, -0.3697246, 0.16579251, 0.121434554, -0.21492031, -0.05833574, 0.52031744, 0.2790309, 0.10993306, 0.04820852, 0.0804567, -0.07538649, 0.14502001, -0.31403238, 0.00605297, -0.3193564, 0.15852208, 0.09152667, 0.2542446, -0.068959385, -0.113291375, -0.0013434073, 0.2908557, -0.34565738, 0.08744858, -0.27147207, -0.016093588, 0.35012594, -0.06517283, -0.21159141, -0.21891905, -0.14624959, 0.19182162, -0.26855716, -0.27518803, -0.06448997, -0.16013555, -0.10634222, 0.2517092, -0.051260557, 0.13499208, -0.16067086, 0.1235796, 0.10651327, 0.1248464, 0.09608018, 0.10875294, -0.17628029, -0.14993335, -0.22656946, 0.046513427, 0.01661821, 0.15899296, 0.008403541, 0.3046192, -0.020682083, 0.09533137, -0.0011535145, -0.05992258, -0.07368396, 0.18669176, -0.132606, 0.31065437, 0.08575689, 0.39108625, 0.006062198, 0.049430672, -0.043191414, -0.41951126, -2.882281e-05, 0.00018265304, 0.045887418, -0.10423502, 0.096313, 0.12071279, -0.2684525, 0.027784064, -0.052017674, 0.10998189, -0.03504945, -0.4021614, 0.11476354, -0.18335815, -0.25298253, 0.04151896, -0.11122174, 0.07973576, -0.17607906, -0.18798462, -0.08443043, -0.29227188, 0.06467571, -0.29671097, -0.32267892, 0.17434804, -0.047513902, -0.22174883, -0.0025798103, 0.13267697, -0.1280987, -0.12375901, -0.26898938, -0.091828905, -0.13822441, 0.2196545, 0.27360538, 0.01708006, 0.18542996, 0.031305447, -0.011853155, 0.2607945, -0.069258966, 0.4082498, 0.13769257, -0.06753166, 0.08557292, -0.016361358, 0.18575758, 0.050592203, 0.33967128, -0.23836665, 0.111111425, -0.12647268, -0.12361715, 0.14490396, 0.04368814, -0.29391274, 0.42735502, 0.2719744, 0.18907389, -0.10510008, 0.1729108, -0.110165626, -0.45809317, 0.28039864, -0.03838747, -0.0362208, -0.29658908, -0.47492504, -0.0870686, -0.19801447, 0.25448716, -0.17519765, -0.22597277, 0.004542415, 0.0030638515, 0.09299884, 0.22942762, 0.45505032, -0.17409551, -0.31138635, -0.067759335, -0.077000946, -0.31413493, -0.09735283, 0.076465905, 0.4041182, -0.31096298, -0.44294867, -0.0983678, 0.45615754, -0.03275402, 0.00509677, 0.14813443, -0.07610146, 0.19002211, -0.28463957, -0.23900183, -0.40661773, -0.34111005, -0.3556236, 0.21908924, -0.29190734, 0.070580125, 0.14633326, 0.03089862, -0.24584164, -0.39996126, -0.48968995, -0.312146, -0.21079199, -0.14813478, 0.5341836, 0.22546893, -0.014005032, -0.01805647, 0.4703925, -0.029237665, -0.064660475, 0.4753422, 0.079130545, -0.4753996, 0.416569, -0.073893294, 0.05223172, -0.3363683, 0.34457994, 0.4033987, -0.16754861, 0.3258183, -0.44638145, -0.14282253, 0.048311297, 0.016544862, 0.47639394, 0.46989134, -0.20842469, 0.4766024, -0.4599421, -0.027664881, 0.13368914, -0.47369748, -0.0068922183, 0.088064775, 0.46170768, 0.0061341985, -0.4977596, 0.07655512, -0.009270886, 0.17562318, 0.4649176, 0.49440217, -0.19389676, -0.52053976, -0.43119422, -0.31907305, -0.46647322, -0.42245275, 0.24190505, -0.23089184, 0.21107732, 0.12265268, -0.09368632, 0.031853467, 0.4016372, 0.31390002, -0.4229131, 0.18885213, -0.14334817, -0.24590436, 0.05666217, 0.11155066, -0.08580104, 0.47992212, 0.1266779, 0.068731, -0.025313355, -0.3900326, -0.5484824, 0.0551491, 0.17945951, -0.07438746, -0.6014462, -0.0696135, -0.22865008, -0.035140883, 0.51084125, -0.23826489, 0.04844249, -0.037523072, -0.43135744, -0.43802634, -0.3237154, -0.10699537, 0.4216176, -0.16567804, -0.2120634, 0.21415743, 0.042084534, -0.4764512, -0.06318894, -0.026060712, 0.14212713, -0.090403914, -0.5329373, -0.34676167, 0.08881115, -0.47232595, 0.14349048, -0.060304713, -0.17320503, -0.07774133, 0.06609534, -0.31932357, 0.5204021, -0.2433925, -0.15112838, -0.25536832, 0.1161305, -0.060607586, -0.0063074497, -0.17102708, 0.57098836, 0.29034263, 0.009655909, 0.042145427, -0.14130168, -0.22052912, -0.24260473, 0.00493375, -0.34147537, 0.21009156, 0.058456797, 0.1791022, 0.012334772, -0.18190204, 0.122382514, -0.3092481, -0.2547668, 0.48371306, -0.17835245, 0.15760022, -0.16303895, -0.25655028, -0.33530664, -0.13945083, 0.12666269, -0.2871581, -0.2834732, 0.021971537, 0.37329897, 0.3593988, 0.15262349, 0.1934739, 0.49397656, 0.07162842, 0.036432244, -0.106860586, 0.0042403163, -0.17132974, 0.18332466, 0.33091626, -0.18538995, -0.10356087, -0.210439, -0.15634738, -0.114386745, -0.17249873, -0.27540627, 0.08439114, 0.480865, -0.33167902, 0.23008928, 0.0783882, -0.34583503, -0.30827764, 0.03743158, -0.3524712, -0.41141677, 0.33153418, 0.060529534, -0.24922673, 0.018332338, 0.23231578, 0.076531954, -0.18839586, -0.2748759, -0.069568254, 0.18373182, -0.11693078, -0.4281645, -0.07693351, -0.044913728, -0.206807, 0.106536426, -0.08990993, 0.05061899, 0.16893424, -0.0051499438, 0.08896669, 0.15880929, 0.031993464, 0.21091802, -0.0030530498, 0.025094524, 0.20828858, 0.008258856, 0.12539469, -0.26428357, 0.22211166, 0.07453909, -0.23974304, -0.19140771, 0.2705987, 0.16394958, -0.22647184, 0.42071772, 0.123723134, 0.47535634, 0.44595918, 0.18118908, 0.010396708, 0.051267713, 0.2660794, -0.1777798, -0.078678995, -0.19820926, -0.046253007, -0.19392817, -0.37887356, -0.09877098, 0.13149053, -0.006124521, -0.036608383, -0.23082857, -0.1724467, -0.1253762, 0.2269693, 0.114693105, 0.022053624, -0.2983326, -0.33970863, 0.22569136, -0.07275827, -0.42133147, 0.06953529, 0.19775966, -0.0011880901, 0.47808227, 0.16677704, -0.3003401, 0.27949628, 0.048049748, 0.0024606164, -0.118907176, 0.48523074, 0.5289312, -0.18127419, -0.31591332, 0.04114672, 0.47675505, -0.55082107, 0.07772104, 0.42817274, -0.30658546, -0.55103457, 0.3863325, 0.43242508, -0.5709326, 0.19932464, -0.11461739, -0.17783387, -0.4414613, -0.5823445, 0.38568187, 0.014198657, -0.6527855, 0.33627906, -0.16354555, -0.42309415, 0.56828684, -0.13334204, -0.07112236, -0.46399, 0.5003211, 0.52474135, -0.45971096, -0.52494496, 0.6125783, -0.49865896, 0.44104156, -0.11479983, -0.4198139, 0.46744746, -0.4946688, -0.19461744, 0.28320706, -0.57049835, -0.201093, 0.364638, 0.12114345, 0.42206058, -0.51890904, -0.015045764, 0.25927663, 0.29393014, -0.113392636, -0.30199394, 0.019158091, -0.45296547, 0.496664, -0.22980437, 0.40260503, 0.3071775, 0.056090314, -0.44446927, -0.23278888, 0.11304414, -0.3038084, -0.3188633, -0.31814027, 0.31832257, 0.018498104, -0.09746303, 0.40299612, -0.37734136, -0.050302446, -0.016584774, -0.1899557, 0.31010965, -0.31733188, 0.11130249, 0.15582018, -0.32665083, -0.40294617, -0.19474587, -0.3413013, -0.3319204, -0.04985279, 0.32920063, -0.13790078, 0.29549247, 0.51119685, -0.30517223, -0.028215636, -0.0051494553, 0.36782968, -0.17083547, 0.067666344, -0.20249099, 0.49638784, -0.078550264, 0.18649834, -0.1287215, -0.16169955, -0.007131726, 0.27515072, 0.044655878, 0.18599728, -0.09192467, -0.056013566, -0.1884206, -0.3554, -0.3403821, 0.1659832, 0.40141833, 0.036413047, -0.14967516, -0.35935867, -0.02042848, -0.0034812717, -0.24362664, 0.22350612, -0.24949618, -0.077820346, 0.30477583, 0.22883523, -0.052480754, -0.3877266, -0.2538191, -0.30668154, -0.81289643, 0.85977817, -0.4748473, 0.09450848, -0.051513877, 0.54187, 0.73150843, -0.7780165, -0.94305736, 0.8385366, -0.94679356, 0.7873781, -0.16342063, -0.47052407, -0.26589403, -0.09493903, -0.7996757, -0.8442448, 0.76828206, 0.8324819, 0.77193624, -0.25122303, -0.656556, -0.48474574, 0.64337736, 0.71216565, -0.8011607, -0.07138495, -0.7973066, 0.9067654, 0.83363044, -0.7166643, 0.7481506, 0.50073814, -0.73602384, 0.69871294, 0.41522923, 0.64432216, -0.53532726, -0.7294663, -0.67267036, 0.87232506, -0.94201463, 0.7939244, 0.6909495, 0.38047674, -0.94338644, 0.59335977, 0.75743836, -0.81986475, 0.6582473, 0.38087815, 0.5065365, -0.6532893, 0.4864434, 0.6938789, 0.6374787, -0.62992173, 0.17445184, -0.76808465, 0.47752008, -0.6655938, 0.943689, 0.7199945};

#endif // SELF_ATTN_Q_PROJ_BIAS_H
